{"learner":{"attributes":{"best_iteration":"999","best_score":"0.4674460222754973"},"feature_names":[],"feature_types":[],"gradient_booster":{"model":{"cats":{"enc":[],"feature_segments":[],"sorted_idx":[]},"gbtree_model_param":{"num_parallel_tree":"1","num_trees":"1000"},"iteration_indptr":[0,1,2,3,4,5,6,7,8,9,10,11,12,13,14,15,16,17,18,19,20,21,22,23,24,25,26,27,28,29,30,31,32,33,34,35,36,37,38,39,40,41,42,43,44,45,46,47,48,49,50,51,52,53,54,55,56,57,58,59,60,61,62,63,64,65,66,67,68,69,70,71,72,73,74,75,76,77,78,79,80,81,82,83,84,85,86,87,88,89,90,91,92,93,94,95,96,97,98,99,100,101,102,103,104,105,106,107,108,109,110,111,112,113,114,115,116,117,118,119,120,121,122,123,124,125,126,127,128,129,130,131,132,133,134,135,136,137,138,139,140,141,142,143,144,145,146,147,148,149,150,151,152,153,154,155,156,157,158,159,160,161,162,163,164,165,166,167,168,169,170,171,172,173,174,175,176,177,178,179,180,181,182,183,184,185,186,187,188,189,190,191,192,193,194,195,196,197,198,199,200,201,202,203,204,205,206,207,208,209,210,211,212,213,214,215,216,217,218,219,220,221,222,223,224,225,226,227,228,229,230,231,232,233,234,235,236,237,238,239,240,241,242,243,244,245,246,247,248,249,250,251,252,253,254,255,256,257,258,259,260,261,262,263,264,265,266,267,268,269,270,271,272,273,274,275,276,277,278,279,280,281,282,283,284,285,286,287,288,289,290,291,292,293,294,295,296,297,298,299,300,301,302,303,304,305,306,307,308,309,310,311,312,313,314,315,316,317,318,319,320,321,322,323,324,325,326,327,328,329,330,331,332,333,334,335,336,337,338,339,340,341,342,343,344,345,346,347,348,349,350,351,352,353,354,355,356,357,358,359,360,361,362,363,364,365,366,367,368,369,370,371,372,373,374,375,376,377,378,379,380,381,382,383,384,385,386,387,388,389,390,391,392,393,394,395,396,397,398,399,400,401,402,403,404,405,406,407,408,409,410,411,412,413,414,415,416,417,418,419,420,421,422,423,424,425,426,427,428,429,430,431,432,433,434,435,436,437,438,439,440,441,442,443,444,445,446,447,448,449,450,451,452,453,454,455,456,457,458,459,460,461,462,463,464,465,466,467,468,469,470,471,472,473,474,475,476,477,478,479,480,481,482,483,484,485,486,487,488,489,490,491,492,493,494,495,496,497,498,499,500,501,502,503,504,505,506,507,508,509,510,511,512,513,514,515,516,517,518,519,520,521,522,523,524,525,526,527,528,529,530,531,532,533,534,535,536,537,538,539,540,541,542,543,544,545,546,547,548,549,550,551,552,553,554,555,556,557,558,559,560,561,562,563,564,565,566,567,568,569,570,571,572,573,574,575,576,577,578,579,580,581,582,583,584,585,586,587,588,589,590,591,592,593,594,595,596,597,598,599,600,601,602,603,604,605,606,607,608,609,610,611,612,613,614,615,616,617,618,619,620,621,622,623,624,625,626,627,628,629,630,631,632,633,634,635,636,637,638,639,640,641,642,643,644,645,646,647,648,649,650,651,652,653,654,655,656,657,658,659,660,661,662,663,664,665,666,667,668,669,670,671,672,673,674,675,676,677,678,679,680,681,682,683,684,685,686,687,688,689,690,691,692,693,694,695,696,697,698,699,700,701,702,703,704,705,706,707,708,709,710,711,712,713,714,715,716,717,718,719,720,721,722,723,724,725,726,727,728,729,730,731,732,733,734,735,736,737,738,739,740,741,742,743,744,745,746,747,748,749,750,751,752,753,754,755,756,757,758,759,760,761,762,763,764,765,766,767,768,769,770,771,772,773,774,775,776,777,778,779,780,781,782,783,784,785,786,787,788,789,790,791,792,793,794,795,796,797,798,799,800,801,802,803,804,805,806,807,808,809,810,811,812,813,814,815,816,817,818,819,820,821,822,823,824,825,826,827,828,829,830,831,832,833,834,835,836,837,838,839,840,841,842,843,844,845,846,847,848,849,850,851,852,853,854,855,856,857,858,859,860,861,862,863,864,865,866,867,868,869,870,871,872,873,874,875,876,877,878,879,880,881,882,883,884,885,886,887,888,889,890,891,892,893,894,895,896,897,898,899,900,901,902,903,904,905,906,907,908,909,910,911,912,913,914,915,916,917,918,919,920,921,922,923,924,925,926,927,928,929,930,931,932,933,934,935,936,937,938,939,940,941,942,943,944,945,946,947,948,949,950,951,952,953,954,955,956,957,958,959,960,961,962,963,964,965,966,967,968,969,970,971,972,973,974,975,976,977,978,979,980,981,982,983,984,985,986,987,988,989,990,991,992,993,994,995,996,997,998,999,1000],"tree_info":[0,0,0,0,0,0,0,0,0,0,0,0,0,0,0,0,0,0,0,0,0,0,0,0,0,0,0,0,0,0,0,0,0,0,0,0,0,0,0,0,0,0,0,0,0,0,0,0,0,0,0,0,0,0,0,0,0,0,0,0,0,0,0,0,0,0,0,0,0,0,0,0,0,0,0,0,0,0,0,0,0,0,0,0,0,0,0,0,0,0,0,0,0,0,0,0,0,0,0,0,0,0,0,0,0,0,0,0,0,0,0,0,0,0,0,0,0,0,0,0,0,0,0,0,0,0,0,0,0,0,0,0,0,0,0,0,0,0,0,0,0,0,0,0,0,0,0,0,0,0,0,0,0,0,0,0,0,0,0,0,0,0,0,0,0,0,0,0,0,0,0,0,0,0,0,0,0,0,0,0,0,0,0,0,0,0,0,0,0,0,0,0,0,0,0,0,0,0,0,0,0,0,0,0,0,0,0,0,0,0,0,0,0,0,0,0,0,0,0,0,0,0,0,0,0,0,0,0,0,0,0,0,0,0,0,0,0,0,0,0,0,0,0,0,0,0,0,0,0,0,0,0,0,0,0,0,0,0,0,0,0,0,0,0,0,0,0,0,0,0,0,0,0,0,0,0,0,0,0,0,0,0,0,0,0,0,0,0,0,0,0,0,0,0,0,0,0,0,0,0,0,0,0,0,0,0,0,0,0,0,0,0,0,0,0,0,0,0,0,0,0,0,0,0,0,0,0,0,0,0,0,0,0,0,0,0,0,0,0,0,0,0,0,0,0,0,0,0,0,0,0,0,0,0,0,0,0,0,0,0,0,0,0,0,0,0,0,0,0,0,0,0,0,0,0,0,0,0,0,0,0,0,0,0,0,0,0,0,0,0,0,0,0,0,0,0,0,0,0,0,0,0,0,0,0,0,0,0,0,0,0,0,0,0,0,0,0,0,0,0,0,0,0,0,0,0,0,0,0,0,0,0,0,0,0,0,0,0,0,0,0,0,0,0,0,0,0,0,0,0,0,0,0,0,0,0,0,0,0,0,0,0,0,0,0,0,0,0,0,0,0,0,0,0,0,0,0,0,0,0,0,0,0,0,0,0,0,0,0,0,0,0,0,0,0,0,0,0,0,0,0,0,0,0,0,0,0,0,0,0,0,0,0,0,0,0,0,0,0,0,0,0,0,0,0,0,0,0,0,0,0,0,0,0,0,0,0,0,0,0,0,0,0,0,0,0,0,0,0,0,0,0,0,0,0,0,0,0,0,0,0,0,0,0,0,0,0,0,0,0,0,0,0,0,0,0,0,0,0,0,0,0,0,0,0,0,0,0,0,0,0,0,0,0,0,0,0,0,0,0,0,0,0,0,0,0,0,0,0,0,0,0,0,0,0,0,0,0,0,0,0,0,0,0,0,0,0,0,0,0,0,0,0,0,0,0,0,0,0,0,0,0,0,0,0,0,0,0,0,0,0,0,0,0,0,0,0,0,0,0,0,0,0,0,0,0,0,0,0,0,0,0,0,0,0,0,0,0,0,0,0,0,0,0,0,0,0,0,0,0,0,0,0,0,0,0,0,0,0,0,0,0,0,0,0,0,0,0,0,0,0,0,0,0,0,0,0,0,0,0,0,0,0,0,0,0,0,0,0,0,0,0,0,0,0,0,0,0,0,0,0,0,0,0,0,0,0,0,0,0,0,0,0,0,0,0,0,0,0,0,0,0,0,0,0,0,0,0,0,0,0,0,0,0,0,0,0,0,0,0,0,0,0,0,0,0,0,0,0,0,0,0,0,0,0,0,0,0,0,0,0,0,0,0,0,0,0,0,0,0,0,0,0,0,0,0,0,0,0,0,0,0,0,0,0,0,0,0,0,0,0,0,0,0,0,0,0,0,0,0,0,0,0,0,0,0,0,0,0,0,0,0,0,0,0,0,0,0,0,0,0,0,0,0,0,0,0,0,0,0,0,0,0,0,0,0,0,0,0,0,0,0,0,0,0,0,0,0,0,0,0,0,0,0,0,0,0,0,0,0,0,0,0,0,0,0,0,0,0,0,0,0,0,0,0,0,0,0,0,0,0,0,0,0,0,0,0,0,0,0,0,0,0,0,0,0,0,0,0,0,0,0,0,0,0,0,0,0,0,0,0,0,0,0,0,0,0,0,0,0,0,0,0,0,0,0,0,0,0,0,0,0,0,0,0,0,0,0,0,0,0,0,0,0,0,0,0,0,0,0,0,0,0,0,0,0,0,0,0,0],"trees":[{"base_weights":[-4.987053E-2,7.9557747E-1,-1.9408072E0,-1.7062889E0,8.942732E-1,-2.017045E0,3.340876E-2,-6.074415E-2,-4.1633092E-2,1.1627157E0,2.822969E-1,-1.8945799E0,-2.3074574E0,1.2312742E0,2.8098507E-2,3.6565897E-1,-1.5800937E0,-5.844281E-2,-4.6341117E-2,-4.2360906E-2,-7.092704E-2,1.1029555E0,1.7247127E0,-4.099935E-2,4.8082343E-1,4.8668998E-1,-7.8840864E-1,-7.735695E-2,-9.987763E-3,3.527233E-2,1.6929934E-2,5.6205675E-2,2.2841508E-2,2.1210087E-2,-5.411363E-4,2.4842056E-3,1.7522974E-2,-2.7767537E-2,3.3360745E-3],"categories":[],"categories_nodes":[],"categories_segments":[],"categories_sizes":[],"default_left":[0,0,0,0,0,0,0,0,0,0,0,0,0,0,0,0,0,0,0,0,0,0,0,0,0,0,0,0,0,0,0,0,0,0,0,0,0,0,0],"id":0,"left_children":[1,3,5,7,9,11,-1,-1,-1,13,15,17,19,21,23,25,27,-1,-1,-1,-1,29,31,-1,33,35,37,-1,-1,-1,-1,-1,-1,-1,-1,-1,-1,-1,-1],"loss_changes":[2.1084236E3,2.2657446E2,9.713074E1,7.341461E-1,1.4382397E2,9.780029E0,0E0,0E0,0E0,4.738562E1,4.231995E1,2.3356934E0,2.4285889E0,3.4495728E1,2.3237112E1,3.6442844E1,1.3719778E1,0E0,0E0,0E0,0E0,1.7331543E1,1.53263855E1,0E0,3.1423297E0,9.168377E0,3.1739702E0,0E0,0E0,0E0,0E0,0E0,0E0,0E0,0E0,0E0,0E0,0E0,0E0],"parents":[2147483647,0,0,1,1,2,2,3,3,4,4,5,5,9,9,10,10,11,11,12,12,13,13,14,14,15,15,16,16,21,21,22,22,24,24,25,25,26,26],"right_children":[2,4,6,8,10,12,-1,-1,-1,14,16,18,20,22,24,26,28,-1,-1,-1,-1,30,32,-1,34,36,38,-1,-1,-1,-1,-1,-1,-1,-1,-1,-1,-1,-1],"split_conditions":[1E0,-2.246506E-2,2.1276595E-3,2.863023E-2,2E0,5.524862E-3,3.340876E-2,-6.074415E-2,-4.1633092E-2,5.09928E-4,1E0,6.259781E-3,2.156069E-2,1.2272528E-1,-6.39894E-2,1E0,1E0,-5.844281E-2,-4.6341117E-2,-4.2360906E-2,-7.092704E-2,1E0,3.533569E-3,-4.099935E-2,-4.457189E-3,-2.9073227E-2,4.8076924E-2,-7.735695E-2,-9.987763E-3,3.527233E-2,1.6929934E-2,5.6205675E-2,2.2841508E-2,2.1210087E-2,-5.411363E-4,2.4842056E-3,1.7522974E-2,-2.7767537E-2,3.3360745E-3],"split_indices":[489,1764,280,1001,507,208,0,0,0,1036,1796,67,622,532,673,494,496,0,0,0,0,1809,223,0,598,1694,16,0,0,0,0,0,0,0,0,0,0,0,0],"split_type":[0,0,0,0,0,0,0,0,0,0,0,0,0,0,0,0,0,0,0,0,0,0,0,0,0,0,0,0,0,0,0,0,0,0,0,0,0,0,0],"sum_hessian":[1.3168798E3,9.104099E2,4.0646988E2,3.3933437E1,8.7647644E2,3.9690295E2,9.566942E0,1.4288319E1,1.9645119E1,6.086105E2,2.6786597E2,2.8446826E2,1.1243468E2,5.738507E2,3.4759804E1,2.57159E2,1.0706977E1,2.4276869E2,4.1699585E1,8.246705E0,1.0418797E2,4.5798642E2,1.1586427E2,8.023254E0,2.673655E1,2.3327312E2,2.388587E1,5.3534884E0,5.3534884E0,4.024209E2,5.5565517E1,9.9542625E1,1.6321651E1,1.8108894E1,8.627655E0,4.56882E1,1.8758492E2,2.0700508E1,3.1853611E0],"tree_param":{"num_deleted":"0","num_feature":"1814","num_nodes":"39","size_leaf_vector":"1"}},{"base_weights":[-3.0236812E-2,7.4639463E-1,-1.7944797E0,8.460005E-1,-5.079172E-2,-1.8629164E0,3.147942E-2,9.9618006E-1,1.0039464E-1,-1.8905338E0,3.167827E-3,1.0275337E0,-6.3573755E-2,-1.0208739E0,2.8782126E-1,-1.41291E0,-1.9720457E0,1.0776818E0,-2.4245579E-2,-6.841077E-1,-5.0152525E-2,6.417946E-2,5.3518283E-1,-1.2785497E-2,-4.467494E-2,-6.99798E-2,-1.8792752E0,4.5951635E-2,2.8587922E-2,-7.5333E-3,-2.3113118E-2,3.3934244E-3,-9.940506E-3,1.7334921E-2,8.344607E-3,-2.3160737E-2,-5.669506E-2],"categories":[],"categories_nodes":[],"categories_segments":[],"categories_sizes":[],"default_left":[0,0,0,0,0,0,0,0,0,0,0,0,0,0,0,0,0,0,0,0,0,0,0,0,0,0,0,0,0,0,0,0,0,0,0,0,0],"id":1,"left_children":[1,3,5,7,-1,9,-1,11,13,15,-1,17,-1,19,21,23,25,27,-1,29,-1,31,33,-1,-1,-1,35,-1,-1,-1,-1,-1,-1,-1,-1,-1,-1],"loss_changes":[1.8496637E3,2.291961E2,8.225806E1,1.0081793E2,0E0,2.2124146E1,0E0,7.543921E1,3.2281376E1,1.2698853E1,0E0,6.929285E1,0E0,3.682703E0,7.2231407E0,3.9936676E0,6.8984375E0,3.954413E1,0E0,4.1222858E-1,0E0,1.3930106E0,5.206089E-1,0E0,0E0,0E0,1.7375488E0,0E0,0E0,0E0,0E0,0E0,0E0,0E0,0E0,0E0,0E0],"parents":[2147483647,0,0,1,1,2,2,3,3,5,5,7,7,8,8,9,9,11,11,13,13,14,14,15,15,16,16,17,17,19,19,21,21,22,22,26,26],"right_children":[2,4,6,8,-1,10,-1,12,14,16,-1,18,-1,20,22,24,26,28,-1,30,-1,32,34,-1,-1,-1,36,-1,-1,-1,-1,-1,-1,-1,-1,-1,-1],"split_conditions":[3.34343E-2,1E0,7.4528195E-2,2.9785769E-2,-5.079172E-2,7.518797E-3,3.147942E-2,1E0,-2.6876226E-3,6.571058E-2,3.167827E-3,1E0,-6.3573755E-2,-2.4298122E-2,6.274482E-2,-1.2325327E-3,6.1919503E-3,-1.4349663E-1,-2.4245579E-2,1.8552876E-3,-5.0152525E-2,4.521541E-2,6.385055E-2,-1.2785497E-2,-4.467494E-2,-6.99798E-2,3.284007E-3,4.5951635E-2,2.8587922E-2,-7.5333E-3,-2.3113118E-2,3.3934244E-3,-9.940506E-3,1.7334921E-2,8.344607E-3,-2.3160737E-2,-5.669506E-2],"split_indices":[1223,490,1365,759,0,254,0,498,1029,1432,0,494,0,1272,601,817,399,562,0,324,0,984,1459,0,0,0,472,0,0,0,0,0,0,0,0,0,0],"split_type":[0,0,0,0,0,0,0,0,0,0,0,0,0,0,0,0,0,0,0,0,0,0,0,0,0,0,0,0,0,0,0,0,0,0,0,0,0],"sum_hessian":[1.3479779E3,9.3636206E2,4.1161588E2,9.0025665E2,3.6105408E1,4.0227982E2,9.336049E0,7.490478E2,1.5120888E2,3.967531E2,5.5267E0,7.422477E2,6.8000965E0,2.101874E1,1.3019014E2,6.0512108E1,3.3624103E2,7.229121E2,1.933557E1,1.5203466E1,5.815274E0,6.90347E1,6.115544E1,4.8136044E0,5.5698505E1,6.3860405E1,2.723806E2,1.5338382E2,5.695283E2,3.177088E0,1.2026379E1,6.2069515E1,6.9651847E0,5.1381744E1,9.773695E0,3.273332E0,2.6910727E2],"tree_param":{"num_deleted":"0","num_feature":"1814","num_nodes":"37","size_leaf_vector":"1"}},{"base_weights":[-8.563196E-2,7.0979613E-1,-1.7975432E0,8.2333755E-1,-4.6794754E-2,-1.8694859E0,2.8689096E-2,1.0988128E0,2.4419834E-1,-2.2008195E0,-1.7627823E0,1.1940584E0,-9.366634E-1,3.416651E-1,-5.90995E-1,-6.771457E-2,-4.0590696E-2,-1.7759758E0,-1.025641E-2,1.258225E0,-3.0929908E-1,6.0085046E-1,-5.25806E-2,4.2519796E-1,-5.7950354E-1,-2.5848934E-2,4.3271272E-3,-1.7883927E0,-2.0304447E-2,3.4438618E-2,4.8498314E-2,2.0071417E-3,-4.293918E-2,2.5397653E-2,1.2268575E-3,2.3018798E-2,9.167982E-3,-5.97088E-2,7.3142555E-3,-4.4153683E-2,-5.467471E-2],"categories":[],"categories_nodes":[],"categories_segments":[],"categories_sizes":[],"default_left":[0,0,0,0,0,0,0,0,0,0,0,0,0,0,0,0,0,0,0,0,0,0,0,0,0,0,0,0,0,0,0,0,0,0,0,0,0,0,0,0,0],"id":2,"left_children":[1,3,5,7,-1,9,-1,11,13,15,17,19,21,23,25,-1,-1,27,-1,29,31,33,-1,35,37,-1,-1,39,-1,-1,-1,-1,-1,-1,-1,-1,-1,-1,-1,-1,-1],"loss_changes":[1.829217E3,2.3765598E2,8.621533E1,1.3920093E2,0E0,1.0814941E1,0E0,1.1591437E2,2.3245275E1,1.5892029E0,5.3806763E0,5.4998047E1,3.496518E1,1.98009E1,6.083521E0,0E0,0E0,3.1055298E0,0E0,1.9608154E1,1.0216084E1,1.3574057E0,0E0,9.3220215E0,2.55181E1,0E0,0E0,6.8688965E-1,0E0,0E0,0E0,0E0,0E0,0E0,0E0,0E0,0E0,0E0,0E0,0E0,0E0],"parents":[2147483647,0,0,1,1,2,2,3,3,5,5,7,7,8,8,9,9,10,10,11,11,12,12,13,13,14,14,17,17,19,19,20,20,21,21,23,23,24,24,27,27],"right_children":[2,4,6,8,-1,10,-1,12,14,16,18,20,22,24,26,-1,-1,28,-1,30,32,34,-1,36,38,-1,-1,40,-1,-1,-1,-1,-1,-1,-1,-1,-1,-1,-1,-1,-1],"split_conditions":[1E0,1E0,7.575758E-3,2E0,-4.6794754E-2,-2.1097437E-2,2.8689096E-2,3.8610038E-3,1E0,3.787879E-3,1.4760761E-1,5.843251E-2,-4.0828664E-2,1E0,1.1930726E-2,-6.771457E-2,-4.0590696E-2,3.984064E-3,-1.025641E-2,6.0185187E-2,4.1551245E-3,1.2533323E-1,-5.25806E-2,3E0,3.6764706E-3,-2.5848934E-2,4.3271272E-3,-4.000459E-2,-2.0304447E-2,3.4438618E-2,4.8498314E-2,2.0071417E-3,-4.293918E-2,2.5397653E-2,1.2268575E-3,2.3018798E-2,9.167982E-3,-5.97088E-2,7.3142555E-3,-4.4153683E-2,-5.467471E-2],"split_indices":[489,491,170,507,0,1360,0,397,494,222,1141,713,730,498,669,0,0,141,0,12,135,669,0,507,1,0,0,1268,0,0,0,0,0,0,0,0,0,0,0,0,0],"split_type":[0,0,0,0,0,0,0,0,0,0,0,0,0,0,0,0,0,0,0,0,0,0,0,0,0,0,0,0,0,0,0,0,0,0,0,0,0,0,0,0,0],"sum_hessian":[1.3413942E3,9.1625006E2,4.251441E2,8.7320386E2,4.3046165E1,4.1463318E2,1.051093E1,5.911284E2,2.8207547E2,9.622172E1,3.1841144E2,5.6509924E2,2.6029177E1,2.5312662E2,2.8948866E1,8.8667694E1,7.5540266E0,3.1523453E2,3.1769383E0,5.421233E2,2.2975939E1,9.116316E0,1.691286E1,2.3257481E2,2.0551796E1,2.1034306E1,7.9145594E0,3.1109317E2,4.1413436E0,4.1778033E2,1.2434297E2,1.7910873E1,5.0650644E0,5.9800625E0,3.1362534E0,5.8843994E1,1.7373082E2,7.051407E0,1.350039E1,3.4540825E1,2.7655234E2],"tree_param":{"num_deleted":"0","num_feature":"1814","num_nodes":"41","size_leaf_vector":"1"}},{"base_weights":[-1.1767966E-1,6.4104134E-1,-1.6925415E0,7.498336E-1,-1.1550634E0,-1.8258928E0,3.284959E-2,1.0031424E0,2.5155786E-1,-2.2453798E-1,-1.5809255E0,-2.106094E0,-1.7015529E0,1.0473913E0,-4.1238077E-2,3.3025533E-1,-9.812374E-1,-5.724104E-1,2.9857284E-1,-5.6347076E-2,-3.873385E-2,-2.1406171E0,-2.3166109E-2,-1.7158037E0,-1.0022382E-2,8.7644875E-1,1.6022063E0,4.206096E-1,-5.76068E-1,-1.2228653E-1,-7.2285146E-2,-9.076055E-3,-2.2405041E-2,1.33710075E-2,2.1552085E-3,-6.6204645E-2,-4.910948E-2,-5.3471263E-2,-4.3007366E-2,2.7066793E-2,-4.7778483E-2,2.3809101E-2,5.2197997E-2,1.549393E-2,2.860242E-3,-2.5312608E-2,3.4612652E-3,3.9299135E-3,-1.0689691E-2],"categories":[],"categories_nodes":[],"categories_segments":[],"categories_sizes":[],"default_left":[0,0,0,0,0,0,0,0,0,0,0,0,0,0,0,0,0,0,0,0,0,0,0,0,0,0,0,0,0,0,0,0,0,0,0,0,0,0,0,0,0,0,0,0,0,0,0,0,0],"id":3,"left_children":[1,3,5,7,9,11,-1,13,15,17,19,21,23,25,-1,27,29,31,33,-1,-1,35,-1,37,-1,39,41,43,45,47,-1,-1,-1,-1,-1,-1,-1,-1,-1,-1,-1,-1,-1,-1,-1,-1,-1,-1,-1],"loss_changes":[1.5518943E3,1.7216006E2,1.5896045E2,1.0415027E2,1.964077E1,1.0469238E1,0E0,5.9101135E1,2.7500317E1,3.2659698E0,5.4325104E-1,3.8623657E0,4.9727173E0,4.9677612E1,0E0,2.1865858E1,2.0635328E1,2.710426E-1,2.1651119E-1,0E0,0E0,2.612915E-1,0E0,2.7319946E0,0E0,2.7783447E1,1.2612061E1,7.455284E0,4.606146E0,7.40639E-1,0E0,0E0,0E0,0E0,0E0,0E0,0E0,0E0,0E0,0E0,0E0,0E0,0E0,0E0,0E0,0E0,0E0,0E0,0E0],"parents":[2147483647,0,0,1,1,2,2,3,3,4,4,5,5,7,7,8,8,9,9,10,10,11,11,12,12,13,13,15,15,16,16,17,17,18,18,21,21,23,23,25,25,26,26,27,27,28,28,29,29],"right_children":[2,4,6,8,10,12,-1,14,16,18,20,22,24,26,-1,28,30,32,34,-1,-1,36,-1,38,-1,40,42,44,46,48,-1,-1,-1,-1,-1,-1,-1,-1,-1,-1,-1,-1,-1,-1,-1,-1,-1,-1,-1],"split_conditions":[1E0,7.164637E-2,7.575758E-3,2E0,-7.4366154E-3,-2.1365559E-2,3.284959E-2,1.3605442E-2,1E0,-4.714557E-2,8.733625E-3,6.383891E-2,1.4760761E-1,3.236246E-3,-4.1238077E-2,1E0,1E0,-7.1972655E-3,2.915452E-3,-5.6347076E-2,-3.873385E-2,1.4760849E-2,-2.3166109E-2,6.259781E-3,-1.0022382E-2,1E0,3.2258064E-3,1E0,1.1337869E-3,1E0,-7.2285146E-2,-9.076055E-3,-2.2405041E-2,1.33710075E-2,2.1552085E-3,-6.6204645E-2,-4.910948E-2,-5.3471263E-2,-4.3007366E-2,2.7066793E-2,-4.7778483E-2,2.3809101E-2,5.2197997E-2,1.549393E-2,2.860242E-3,-2.5312608E-2,3.4612652E-3,3.9299135E-3,-1.0689691E-2],"split_indices":[489,1356,170,507,1320,1031,0,401,1796,1281,71,1752,1141,112,0,494,498,556,68,0,0,613,0,67,0,490,407,500,312,496,0,0,0,0,0,0,0,0,0,0,0,0,0,0,0,0,0,0,0],"split_type":[0,0,0,0,0,0,0,0,0,0,0,0,0,0,0,0,0,0,0,0,0,0,0,0,0,0,0,0,0,0,0,0,0,0,0,0,0,0,0,0,0,0,0,0,0,0,0,0,0],"sum_hessian":[1.2968779E3,8.756224E2,4.2125552E2,8.261632E2,4.9459187E1,4.0235254E2,1.890299E1,5.470471E2,2.7911603E2,1.6008104E1,3.3451084E1,1.1876843E2,2.835841E2,5.376021E2,9.445056E0,2.6305557E2,1.6060465E1,9.557834E0,6.4502707E0,1.3805966E1,1.9645119E1,1.1518253E2,3.5858943E0,2.8040717E2,3.1769383E0,4.1294916E2,1.24652916E2,2.3969548E2,2.3360096E1,1.0706977E1,5.3534884E0,4.825749E0,4.7320848E0,3.3261614E0,3.124109E0,9.881163E1,1.6370905E1,2.225874E2,5.7819767E1,4.0931046E2,3.6387236E0,1.9126589E1,1.0552633E2,1.846827E2,5.5012783E1,1.668167E1,6.6784263E0,5.3534884E0,5.3534884E0],"tree_param":{"num_deleted":"0","num_feature":"1814","num_nodes":"49","size_leaf_vector":"1"}},{"base_weights":[1.9716585E-2,7.0501274E-1,-1.5983148E0,8.1099504E-1,-4.5022346E-2,-1.7345078E0,3.0328173E-2,1.0750313E0,2.397086E-1,-1.6860801E0,-6.7067236E-2,1.111832E0,-4.7665913E-2,3.127266E-1,-9.5643353E-1,-1.6643358E-2,-1.6969986E0,1.2022307E0,1.8973574E-1,4.0839407E-1,-6.996972E-1,-1.1919535E-1,-7.045791E-2,-1.535771E0,-1.7811589E0,3.6605947E-2,-4.5552194E-2,-7.334201E-3,1.7668303E-2,1.4903756E-3,1.4771485E-2,-2.4807733E-2,3.20113E-3,3.8305726E-3,-1.0419475E-2,-4.838448E-2,-3.830399E-2,-5.5425458E-2,-4.7306284E-2],"categories":[],"categories_nodes":[],"categories_segments":[],"categories_sizes":[],"default_left":[0,0,0,0,0,0,0,0,0,0,0,0,0,0,0,0,0,0,0,0,0,0,0,0,0,0,0,0,0,0,0,0,0,0,0,0,0,0,0],"id":4,"left_children":[1,3,5,7,-1,9,-1,11,13,15,-1,17,-1,19,21,-1,23,25,27,29,31,33,-1,35,37,-1,-1,-1,-1,-1,-1,-1,-1,-1,-1,-1,-1,-1,-1],"loss_changes":[1.5217772E3,2.2658862E2,1.4685913E2,1.3859381E2,0E0,5.656372E0,0E0,6.3455505E1,2.5824457E1,3.4840088E0,0E0,5.155945E1,0E0,2.7036684E1,1.9605267E1,0E0,2.072937E0,2.9502258E1,9.964927E0,7.59729E0,2.5724783E0,7.0366824E-1,0E0,5.105591E-1,1.5802002E-1,0E0,0E0,0E0,0E0,0E0,0E0,0E0,0E0,0E0,0E0,0E0,0E0,0E0,0E0],"parents":[2147483647,0,0,1,1,2,2,3,3,5,5,7,7,8,8,9,9,11,11,13,13,14,14,16,16,17,17,18,18,19,19,20,20,21,21,23,23,24,24],"right_children":[2,4,6,8,-1,10,-1,12,14,16,-1,18,-1,20,22,-1,24,26,28,30,32,34,-1,36,38,-1,-1,-1,-1,-1,-1,-1,-1,-1,-1,-1,-1,-1,-1],"split_conditions":[1E0,1E0,2.0661156E-3,2E0,-4.5022346E-2,5.4945056E-3,3.0328173E-2,1.4925373E-2,1E0,-3.5316646E-2,-6.7067236E-2,4.4819433E-2,-4.7665913E-2,1E0,1E0,-1.6643358E-2,2.3060797E-2,1E0,1.9433867E-2,-4.1473534E-2,4.8076924E-2,1E0,-7.045791E-2,2.0682523E-3,1.0219109E-1,3.6605947E-2,-4.5552194E-2,-7.334201E-3,1.7668303E-2,1.4903756E-3,1.4771485E-2,-2.4807733E-2,3.20113E-3,3.8305726E-3,-1.0419475E-2,-4.838448E-2,-3.830399E-2,-5.5425458E-2,-4.7306284E-2],"split_indices":[489,491,280,507,0,114,0,241,1796,1467,0,773,0,494,498,0,13,490,1780,1398,16,496,0,141,1788,0,0,0,0,0,0,0,0,0,0,0,0,0,0],"split_type":[0,0,0,0,0,0,0,0,0,0,0,0,0,0,0,0,0,0,0,0,0,0,0,0,0,0,0,0,0,0,0,0,0,0,0,0,0,0,0],"sum_hessian":[1.3703999E3,9.6306885E2,4.0733102E2,9.1952E2,4.3548786E1,3.874432E2,1.9887814E1,6.282669E2,2.9125314E2,3.5727762E2,3.0165607E1,6.202806E2,7.986304E0,2.751927E2,1.6060465E1,3.9104512E0,3.5336716E2,5.6462335E2,5.565725E1,2.5197893E2,2.3213758E1,1.0706977E1,5.3534884E0,1.2779539E2,2.2557178E2,5.614668E2,3.1565208E0,2.6845554E1,2.8811697E1,4.810682E1,2.0387212E2,2.0028397E1,3.1853611E0,5.3534884E0,5.3534884E0,9.446413E1,3.333126E1,1.6419347E2,6.1378304E1],"tree_param":{"num_deleted":"0","num_feature":"1814","num_nodes":"39","size_leaf_vector":"1"}},{"base_weights":[-2.6586832E-2,6.8462837E-1,-1.6473019E0,7.908748E-1,-4.355607E-2,-1.7134473E0,2.8742103E-2,1.0106498E0,3.0979967E-1,-2.0671184E0,-1.6173853E0,1.0769914E0,-1.5210305E0,3.811795E-1,-4.721912E-1,-2.8469952E-2,-6.310385E-2,-1.6294733E0,-9.498714E-3,-4.2459674E-2,1.1062093E0,-5.0526116E-2,-2.1030484E-2,7.841548E-1,2.7747864E-1,-2.349162E-2,4.07839E-3,-1.6668832E0,-3.920916E-2,3.516741E-2,3.6206157E-3,2.8165078E-2,9.326644E-3,1.2536378E-2,3.7836991E-3,-5.2176602E-2,-4.5438714E-2],"categories":[],"categories_nodes":[],"categories_segments":[],"categories_sizes":[],"default_left":[0,0,0,0,0,0,0,0,0,0,0,0,0,0,0,0,0,0,0,0,0,0,0,0,0,0,0,0,0,0,0,0,0,0,0,0,0],"id":5,"left_children":[1,3,5,7,-1,9,-1,11,13,15,17,19,21,23,25,-1,-1,27,-1,-1,29,-1,-1,31,33,-1,-1,35,-1,-1,-1,-1,-1,-1,-1,-1,-1],"loss_changes":[1.547227E3,2.1291925E2,7.219141E1,9.371979E1,0E0,1.023291E1,0E0,1.04098816E2,1.5827986E1,1.3261719E0,4.4974976E0,4.4897278E1,9.591942E-1,1.0540642E1,4.6238165E0,0E0,0E0,1.6299438E0,0E0,0E0,3.8173462E1,0E0,0E0,3.5252647E0,4.3312397E0,0E0,0E0,4.4110107E-1,0E0,0E0,0E0,0E0,0E0,0E0,0E0,0E0,0E0],"parents":[2147483647,0,0,1,1,2,2,3,3,5,5,7,7,8,8,9,9,10,10,11,11,12,12,13,13,14,14,17,17,20,20,23,23,24,24,27,27],"right_children":[2,4,6,8,-1,10,-1,12,14,16,18,20,22,24,26,-1,-1,28,-1,-1,30,-1,-1,32,34,-1,-1,36,-1,-1,-1,-1,-1,-1,-1,-1,-1],"split_conditions":[1E0,1E0,8.510638E-3,2E0,-4.355607E-2,-2.1118388E-2,2.8742103E-2,1.1583012E-2,1E0,-1.9629091E-2,1.4760761E-1,-8.5858956E-2,7.38255E-2,3E0,6.8610637E-3,-2.8469952E-2,-6.310385E-2,8.3307505E-2,-9.498714E-3,-4.2459674E-2,5.9871227E-3,-5.0526116E-2,-2.1030484E-2,1.273434E-2,4E0,-2.349162E-2,4.07839E-3,-8.148452E-2,-3.920916E-2,3.516741E-2,3.6206157E-3,2.8165078E-2,9.326644E-3,1.2536378E-2,3.7836991E-3,-5.2176602E-2,-4.5438714E-2],"split_indices":[489,491,107,507,0,1360,0,302,494,683,1141,1364,15,507,388,0,0,483,0,0,822,0,0,759,507,0,0,807,0,0,0,0,0,0,0,0,0],"split_type":[0,0,0,0,0,0,0,0,0,0,0,0,0,0,0,0,0,0,0,0,0,0,0,0,0,0,0,0,0,0,0,0,0,0,0,0,0],"sum_hessian":[1.3403115E3,9.3193146E2,4.0838007E2,8.883827E2,4.3548786E1,3.9860266E2,9.777417E0,6.09045E2,2.7933774E2,8.075799E1,3.1784467E2,5.940527E2,1.4992323E1,2.5644232E2,2.2895407E1,3.3958364E0,7.736215E1,3.1466772E2,3.1769383E0,6.333759E0,5.877189E2,1.1625177E1,3.367146E0,5.11428E1,2.0529951E2,1.4960429E1,7.9349766E0,2.7822522E2,3.644249E1,5.506326E2,3.708626E1,3.7803474E1,1.3339322E1,1.05590485E2,9.970904E1,1.8154982E2,9.6675415E1],"tree_param":{"num_deleted":"0","num_feature":"1814","num_nodes":"37","size_leaf_vector":"1"}},{"base_weights":[4.4751663E-2,7.1270186E-1,-1.5309678E0,7.918378E-1,-1.4026128E0,-1.6478498E0,3.1136723E-2,1.0296265E0,2.6411253E-1,-3.6691487E-2,-5.404137E-2,-1.5648838E0,-1.8983786E0,1.5976664E-1,1.1520127E0,3.420454E-1,-1.0607486E0,-4.8060976E-2,-1.2028705E0,-3.8207494E-2,-5.946414E-2,4.00126E-1,-4.716581E-2,1.1800599E0,-4.2406127E-2,4.20563E-1,-5.03542E-1,-1.6116332E0,3.6380982E-3,-1.192028E-2,-3.845958E-2,1.9628778E-2,-4.751756E-3,3.1269953E-2,4.627115E-2,2.5828201E-3,1.4822087E-2,-2.3132682E-2,3.968105E-3,-6.8993755E-2,-2.0094402E-2],"categories":[],"categories_nodes":[],"categories_segments":[],"categories_sizes":[],"default_left":[0,0,0,0,0,0,0,0,0,0,0,0,0,0,0,0,0,0,0,0,0,0,0,0,0,0,0,0,0,0,0,0,0,0,0,0,0,0,0,0,0],"id":6,"left_children":[1,3,5,7,9,11,-1,13,15,-1,-1,17,19,21,23,25,27,-1,29,-1,-1,31,-1,33,-1,35,37,39,-1,-1,-1,-1,-1,-1,-1,-1,-1,-1,-1,-1,-1],"loss_changes":[1.5073962E3,1.6947635E2,1.2973285E2,1.2146973E2,4.1975403E-1,5.51416E0,0E0,7.097864E1,3.1616661E1,0E0,0E0,2.2734985E0,2.5446167E0,3.5435196E1,4.3823242E1,1.9242764E1,1.1304464E1,0E0,1.59898E0,0E0,0E0,1.0639316E1,0E0,2.7337341E1,0E0,6.4193077E0,4.322375E0,6.0471096E0,0E0,0E0,0E0,0E0,0E0,0E0,0E0,0E0,0E0,0E0,0E0,0E0,0E0],"parents":[2147483647,0,0,1,1,2,2,3,3,4,4,5,5,7,7,8,8,11,11,12,12,13,13,14,14,15,15,16,16,18,18,21,21,23,23,25,25,26,26,27,27],"right_children":[2,4,6,8,10,12,-1,14,16,-1,-1,18,20,22,24,26,28,-1,30,-1,-1,32,-1,34,-1,36,38,40,-1,-1,-1,-1,-1,-1,-1,-1,-1,-1,-1,-1,-1],"split_conditions":[1E0,1E0,8.510638E-3,2E0,7.893529E-3,5.524862E-3,3.1136723E-2,-2.9705274E-3,1E0,-3.6691487E-2,-5.404137E-2,9.29368E-4,1.4730864E-2,1.1583012E-2,1.5472881E-2,1E0,4E0,-4.8060976E-2,4.3809526E-2,-3.8207494E-2,-5.946414E-2,1.44617725E-2,-4.716581E-2,2.1929825E-3,-4.2406127E-2,-2.4258152E-2,6.1343875E-2,1.0989011E-2,3.6380982E-3,-1.192028E-2,-3.845958E-2,1.9628778E-2,-4.751756E-3,3.1269953E-2,4.627115E-2,2.5828201E-3,1.4822087E-2,-2.3132682E-2,3.968105E-3,-6.8993755E-2,-2.0094402E-2],"split_indices":[489,491,107,507,639,208,0,1231,1796,0,0,141,468,302,1694,494,507,0,7,0,0,1578,0,112,0,1694,1597,0,0,0,0,0,0,0,0,0,0,0,0,0,0],"split_type":[0,0,0,0,0,0,0,0,0,0,0,0,0,0,0,0,0,0,0,0,0,0,0,0,0,0,0,0,0,0,0,0,0,0,0,0,0,0,0,0,0],"sum_hessian":[1.4301659E3,1.00478394E3,4.2538193E2,9.6915265E2,3.563127E1,4.0721246E2,1.816948E1,6.6745276E2,3.016999E2,2.7372574E1,8.258699E0,3.1135077E2,9.586167E1,8.2609695E1,5.848431E2,2.856394E2,1.6060465E1,2.7926785E2,3.2082916E1,1.324763E1,8.2614044E1,7.321762E1,9.392077E0,5.790528E2,5.7903037E0,2.6182968E2,2.3809736E1,1.0706977E1,5.3534884E0,3.407831E0,2.8675083E1,5.0200996E1,2.3016623E1,4.2237085E2,1.5668192E2,4.75661E1,2.1426358E2,1.6608273E1,7.2014637E0,5.3534884E0,5.3534884E0],"tree_param":{"num_deleted":"0","num_feature":"1814","num_nodes":"41","size_leaf_vector":"1"}},{"base_weights":[-3.2856096E-2,6.232787E-1,-1.5479536E0,7.329535E-1,-9.573962E-1,-1.6165292E0,2.5023667E-2,9.938435E-1,2.0540859E-1,-2.7788532E-1,-1.4328092E0,-1.8574604E0,-1.5303979E0,1.0284994E0,-3.7786677E-2,2.7772263E-1,-9.191984E-1,3.1663084E-1,-5.781398E-1,-5.264169E-2,-3.4093816E-2,-6.0681343E-2,-4.535183E-2,-1.0324075E0,-4.710698E-2,1.0561157E0,-4.2929195E-2,3.6585522E-1,-5.282985E-1,-1.2297014E-1,-6.7249715E-2,1.7022063E-3,1.8753141E-2,-2.048967E-2,-2.4648947E-3,-3.5820886E-2,5.27437E-4,3.3229947E-2,2.834929E-3,9.457201E-3,2.6979601E-2,-2.2454187E-2,3.077467E-3,3.5461332E-3,-1.0343699E-2],"categories":[],"categories_nodes":[],"categories_segments":[],"categories_sizes":[],"default_left":[0,0,0,0,0,0,0,0,0,0,0,0,0,0,0,0,0,0,0,0,0,0,0,0,0,0,0,0,0,0,0,0,0,0,0,0,0,0,0,0,0,0,0,0,0],"id":7,"left_children":[1,3,5,7,9,11,-1,13,15,17,19,21,23,25,-1,27,29,31,33,-1,-1,-1,-1,35,-1,37,-1,39,41,43,-1,-1,-1,-1,-1,-1,-1,-1,-1,-1,-1,-1,-1,-1,-1],"loss_changes":[1.2756969E3,1.559458E2,6.46944E1,1.1512573E2,1.8511879E1,4.98645E0,0E0,4.5060974E1,2.290746E1,4.7057734E0,1.2684479E0,2.3512878E0,4.004883E0,3.903717E1,0E0,1.8838915E1,1.7688656E1,6.979368E-1,8.377223E-1,0E0,0E0,0E0,0E0,4.0810833E0,0E0,2.7006836E1,0E0,6.121189E0,3.727241E0,6.670474E-1,0E0,0E0,0E0,0E0,0E0,0E0,0E0,0E0,0E0,0E0,0E0,0E0,0E0,0E0,0E0],"parents":[2147483647,0,0,1,1,2,2,3,3,4,4,5,5,7,7,8,8,9,9,10,10,11,11,12,12,13,13,15,15,16,16,17,17,18,18,23,23,25,25,27,27,28,28,29,29],"right_children":[2,4,6,8,10,12,-1,14,16,18,20,22,24,26,-1,28,30,32,34,-1,-1,-1,-1,36,-1,38,-1,40,42,44,-1,-1,-1,-1,-1,-1,-1,-1,-1,-1,-1,-1,-1,-1,-1],"split_conditions":[1E0,6.493493E-2,7.575758E-3,2E0,6.68558E-2,6.134969E-3,2.5023667E-2,1E0,1E0,3.8461538E-3,7.434944E-3,-5.8423705E-2,2.0703934E-3,4.2918455E-3,-3.7786677E-2,1E0,1E0,7.803058E-2,-2.4768703E-2,-5.264169E-2,-3.4093816E-2,-6.0681343E-2,-4.535183E-2,6.4935065E-3,-4.710698E-2,4.4819433E-2,-4.2929195E-2,1.4326648E-3,1.0989011E-2,1E0,-6.7249715E-2,1.7022063E-3,1.8753141E-2,-2.048967E-2,-2.4648947E-3,-3.5820886E-2,5.27437E-4,3.3229947E-2,2.834929E-3,9.457201E-3,2.6979601E-2,-2.2454187E-2,3.077467E-3,3.5461332E-3,-1.0343699E-2],"split_indices":[489,1356,170,507,896,399,0,491,1796,351,71,1225,324,397,0,494,498,482,1661,0,0,0,0,391,0,773,0,397,0,496,0,0,0,0,0,0,0,0,0,0,0,0,0,0,0],"split_type":[0,0,0,0,0,0,0,0,0,0,0,0,0,0,0,0,0,0,0,0,0,0,0,0,0,0,0,0,0,0,0,0,0,0,0,0,0,0,0,0,0,0,0,0,0],"sum_hessian":[1.2812871E3,8.9449976E2,3.8678735E2,8.369635E2,5.753625E1,3.7627643E2,1.051093E1,5.594242E2,2.7753934E2,2.4336477E1,3.3199776E1,9.3675835E1,2.8260062E2,5.5148627E2,7.937931E0,2.6147888E2,1.6060465E1,8.148189E0,1.618829E1,1.3554656E1,1.9645119E1,6.0099403E1,3.357643E1,2.2924929E1,2.5967566E2,5.459268E2,5.559411E0,2.3619838E2,2.5280483E1,1.0706977E1,5.3534884E0,5.064914E0,3.0832744E0,1.3052036E1,3.1362534E0,1.9747992E1,3.1769383E0,5.1800635E2,2.792047E1,2.1718298E2,1.9015402E1,1.8602057E1,6.6784263E0,5.3534884E0,5.3534884E0],"tree_param":{"num_deleted":"0","num_feature":"1814","num_nodes":"45","size_leaf_vector":"1"}},{"base_weights":[2.7085463E-2,6.890148E-1,-1.5094194E0,7.2985774E-1,-4.634567E-2,-1.5723749E0,2.2990996E-2,9.313893E-1,2.60903E-1,-1.4897864E0,-1.8181498E0,1.5802845E-1,1.0506645E0,3.5213757E-1,-5.0951344E-1,-4.654379E-2,-1.2164564E0,-5.6846645E-2,-3.7594903E-2,-4.086942E-2,3.5885936E-1,1.0780512E0,-4.2632565E-2,2.712267E-2,3.0584264E-1,3.7388187E-3,-2.2017319E-2,-1.2155113E-2,-3.7640747E-2,1.8444935E-2,-5.179153E-3,2.9299404E-2,4.1958403E-2,1.1679745E-2,2.3457997E-3],"categories":[],"categories_nodes":[],"categories_segments":[],"categories_sizes":[],"default_left":[0,0,0,0,0,0,0,0,0,0,0,0,0,0,0,0,0,0,0,0,0,0,0,0,0,0,0,0,0,0,0,0,0,0,0],"id":8,"left_children":[1,3,5,7,-1,9,-1,11,13,15,17,19,21,23,25,-1,27,-1,-1,-1,29,31,-1,-1,33,-1,-1,-1,-1,-1,-1,-1,-1,-1,-1],"loss_changes":[1.3677644E3,8.688037E1,5.92193E1,8.705368E1,0E0,5.2959595E0,0E0,5.9391357E1,1.9791763E1,3.1816406E0,1.7289429E0,2.7190426E1,3.9386475E1,6.113495E0,4.353746E0,0E0,1.3524933E0,0E0,0E0,0E0,1.0723149E1,1.6631226E1,0E0,0E0,4.3830566E0,0E0,0E0,0E0,0E0,0E0,0E0,0E0,0E0,0E0,0E0],"parents":[2147483647,0,0,1,1,2,2,3,3,5,5,7,7,8,8,9,9,10,10,11,11,12,12,13,13,14,14,16,16,20,20,21,21,24,24],"right_children":[2,4,6,8,-1,10,-1,12,14,16,18,20,22,24,26,-1,28,-1,-1,-1,30,32,-1,-1,34,-1,-1,-1,-1,-1,-1,-1,-1,-1,-1],"split_conditions":[1E0,1E0,2.0661156E-3,2E0,-4.634567E-2,6.746073E-2,2.2990996E-2,-2.9705274E-3,1E0,6.259781E-3,3.927525E-3,-1.7218912E-2,1.5472881E-2,-6.0346793E-2,-2.3282757E-2,-4.654379E-2,-1.7498031E-2,-5.6846645E-2,-3.7594903E-2,-4.086942E-2,-2.8204806E-2,2.1929825E-3,-4.2632565E-2,2.712267E-2,6.732375E-2,3.7388187E-3,-2.2017319E-2,-1.2155113E-2,-3.7640747E-2,1.8444935E-2,-5.179153E-3,2.9299404E-2,4.1958403E-2,1.1679745E-2,2.3457997E-3],"split_indices":[489,491,280,507,0,857,0,1231,494,67,1016,675,1694,659,730,0,1661,0,0,0,1429,112,0,0,1200,0,0,0,0,0,0,0,0,0,0],"split_type":[0,0,0,0,0,0,0,0,0,0,0,0,0,0,0,0,0,0,0,0,0,0,0,0,0,0,0,0,0,0,0,0,0,0,0],"sum_hessian":[1.3428022E3,9.388817E2,4.039205E2,9.2268506E2,1.619663E1,3.9334833E2,1.0572182E1,6.446592E2,2.7802594E2,2.997005E2,9.364782E1,8.645093E1,5.5820825E2,2.4907303E2,2.89529E1,2.4071109E2,5.8989426E1,8.0376884E1,1.3270934E1,9.412495E0,7.703843E1,5.526488E2,5.559411E0,1.784052E1,2.3123251E2,7.6836667E0,2.1269232E1,3.1769383E0,5.5812485E1,5.1890793E1,2.5147636E1,4.2291397E2,1.2973485E2,1.6866902E2,6.256349E1],"tree_param":{"num_deleted":"0","num_feature":"1814","num_nodes":"35","size_leaf_vector":"1"}},{"base_weights":[6.268888E-2,6.154471E-1,-1.3667628E0,6.8485594E-1,-1.3676021E0,-1.4960386E0,2.61436E-2,8.8893807E-1,1.9116032E-1,-4.935456E-2,-1.2188172E-2,-1.421847E0,-5.4571994E-2,9.4375515E-1,-3.625504E-2,2.494403E-1,-6.129599E-1,-4.4170193E-2,-1.0720708E0,1.0227797E0,-1.3505115E-1,-2.8556561E-2,2.8572074E-1,-5.029446E-2,1.7560983E-1,-3.482043E-2,-7.801026E-4,3.1823512E-2,1.044145E-3,-4.6207055E-2,8.2330415E-3,6.5591615E-3,2.54806E-2,-1.5495406E-3,7.817861E-3],"categories":[],"categories_nodes":[],"categories_segments":[],"categories_sizes":[],"default_left":[0,0,0,0,0,0,0,0,0,0,0,0,0,0,0,0,0,0,0,0,0,0,0,0,0,0,0,0,0,0,0,0,0,0,0],"id":9,"left_children":[1,3,5,7,9,11,-1,13,15,-1,-1,17,-1,19,-1,21,23,-1,25,27,29,-1,31,-1,33,-1,-1,-1,-1,-1,-1,-1,-1,-1,-1],"loss_changes":[1.0499972E3,1.3282788E2,1.0853082E2,9.3177826E1,8.066776E0,5.8187866E0,0E0,7.647699E1,1.2911546E1,0E0,0E0,3.5395508E0,0E0,5.46239E1,0E0,1.1366894E1,1.5966824E1,0E0,3.6992416E0,2.2326416E1,2.6030554E1,0E0,9.186062E0,0E0,2.38197E-1,0E0,0E0,0E0,0E0,0E0,0E0,0E0,0E0,0E0,0E0],"parents":[2147483647,0,0,1,1,2,2,3,3,4,4,5,5,7,7,8,8,11,11,13,13,15,15,16,16,18,18,19,19,20,20,22,22,24,24],"right_children":[2,4,6,8,10,12,-1,14,16,-1,-1,18,-1,20,-1,22,24,-1,26,28,30,-1,32,-1,34,-1,-1,-1,-1,-1,-1,-1,-1,-1,-1],"split_conditions":[1E0,1.08019754E-1,2.0661156E-3,2E0,-9.454405E-3,2.173913E-3,2.61436E-2,1E0,1E0,-4.935456E-2,-1.2188172E-2,1.610306E-3,-5.4571994E-2,6.797106E-3,-3.625504E-2,-2.2414736E-2,1.0989011E-2,-4.4170193E-2,-4.7088888E-2,2.87338E-2,-7.951504E-2,-2.8556561E-2,1.0373445E-3,-5.029446E-2,2.744371E-2,-3.482043E-2,-7.801026E-4,3.1823512E-2,1.044145E-3,-4.6207055E-2,8.2330415E-3,6.5591615E-3,2.54806E-2,-1.5495406E-3,7.817861E-3],"split_indices":[490,729,280,507,1275,259,0,491,498,0,0,141,0,642,0,1773,0,0,1328,942,812,0,397,0,1685,0,0,0,0,0,0,0,0,0,0],"split_type":[0,0,0,0,0,0,0,0,0,0,0,0,0,0,0,0,0,0,0,0,0,0,0,0,0,0,0,0,0,0,0,0,0,0,0],"sum_hessian":[1.3268083E3,9.5722577E2,3.6958258E2,9.2548737E2,3.173839E1,3.4971518E2,1.9867397E1,6.5423956E2,2.7124783E2,2.4075974E1,7.662415E0,2.8878912E2,6.092608E1,6.3811237E2,1.6127172E1,2.5356041E2,1.768742E1,2.4955461E2,3.9234505E1,5.9460815E2,4.350422E1,6.6933074E0,2.4686711E2,7.051407E0,1.0636014E1,3.606956E1,3.1649437E0,5.7251184E2,2.2096306E1,9.193747E0,3.4310474E1,2.2185092E2,2.501618E1,3.0016048E0,7.634409E0],"tree_param":{"num_deleted":"0","num_feature":"1814","num_nodes":"35","size_leaf_vector":"1"}},{"base_weights":[9.83873E-2,6.277971E-1,-1.3851912E0,7.0911306E-1,-3.7008118E-2,-1.4492408E0,2.7325893E-2,9.1977996E-1,2.2163689E-1,-1.3848615E0,-5.536814E-2,9.665744E-1,-4.1740328E-2,3.2016996E-1,-5.2672297E-1,-1.3301946E0,-5.178796E-2,1.3565531E-1,1.0331799E0,4.3807486E-1,1.22253396E-1,-2.1284534E-2,3.4929577E-3,-1.3426596E0,-6.2758727E-3,8.458578E-3,-4.0715665E-2,2.7239379E-2,4.1707046E-2,1.5085957E-2,-1.0586374E-6,-7.7429283E-3,5.8610844E-3,-3.4157757E-2,-4.1870337E-2],"categories":[],"categories_nodes":[],"categories_segments":[],"categories_sizes":[],"default_left":[0,0,0,0,0,0,0,0,0,0,0,0,0,0,0,0,0,0,0,0,0,0,0,0,0,0,0,0,0,0,0,0,0,0,0],"id":10,"left_children":[1,3,5,7,-1,9,-1,11,13,15,-1,17,-1,19,21,23,-1,25,27,29,31,-1,-1,33,-1,-1,-1,-1,-1,-1,-1,-1,-1,-1,-1],"loss_changes":[1.0697856E3,1.5279779E2,5.4002808E1,9.8622925E1,0E0,6.347229E0,0E0,7.39798E1,2.1678402E1,3.38031E0,0E0,3.632538E1,0E0,5.9760036E0,4.1163445E0,3.443451E0,0E0,1.1312994E1,2.5999817E1,4.5853043E0,2.7716208E0,0E0,0E0,1.2608643E0,0E0,0E0,0E0,0E0,0E0,0E0,0E0,0E0,0E0,0E0,0E0],"parents":[2147483647,0,0,1,1,2,2,3,3,5,5,7,7,8,8,9,9,11,11,13,13,14,14,15,15,17,17,18,18,19,19,20,20,23,23],"right_children":[2,4,6,8,-1,10,-1,12,14,16,-1,18,-1,20,22,24,-1,26,28,30,32,-1,-1,34,-1,-1,-1,-1,-1,-1,-1,-1,-1,-1,-1],"split_conditions":[1E0,1E0,6.761793E-2,2E0,-3.7008118E-2,4.248088E-3,2.7325893E-2,1.1583012E-2,1E0,8.213553E-3,-5.536814E-2,-1.7518425E-2,-4.1740328E-2,4E0,2.0066889E-2,8.8691795E-3,-5.178796E-2,3.267974E-3,3.236246E-3,1.2643879E-3,7E0,-2.1284534E-2,3.4929577E-3,2.0533882E-3,-6.2758727E-3,8.458578E-3,-4.0715665E-2,2.7239379E-2,4.1707046E-2,1.5085957E-2,-1.0586374E-6,-7.7429283E-3,5.8610844E-3,-3.4157757E-2,-4.1870337E-2],"split_indices":[489,491,1561,507,0,114,0,302,494,448,0,1073,0,507,6,199,0,447,112,1192,507,0,0,324,0,0,0,0,0,0,0,0,0,0,0],"split_type":[0,0,0,0,0,0,0,0,0,0,0,0,0,0,0,0,0,0,0,0,0,0,0,0,0,0,0,0,0,0,0,0,0,0,0],"sum_hessian":[1.3599464E3,1.0027098E3,3.5723666E2,9.613327E2,4.1377087E1,3.479006E2,9.336049E0,6.7062823E2,2.9070447E2,3.031547E2,4.4745922E1,6.578894E2,1.2738806E1,2.573876E2,3.3316864E1,2.6553287E2,3.7621822E1,4.904752E1,6.0884186E2,1.6053726E2,9.685034E1,2.5864088E1,7.452774E0,2.6241718E2,3.1156862E0,4.5408646E1,3.6388733E0,4.534008E2,1.5544109E2,1.3972594E2,2.0811317E1,1.5208019E1,8.164233E1,5.875284E1,2.0366434E2],"tree_param":{"num_deleted":"0","num_feature":"1814","num_nodes":"35","size_leaf_vector":"1"}},{"base_weights":[-6.95872E-3,5.403522E-1,-1.3345523E0,6.2588173E-1,-1.2146624E0,-1.453765E0,2.7364962E-2,6.803902E-1,-4.7961247E-1,-4.789967E-2,-3.2611426E-2,-1.6390438E0,-1.3516884E0,7.1300673E-1,-1.2878726E0,-1.985198E-2,3.1379208E-2,-4.0344197E-2,-5.2941825E-2,-8.805712E-1,-1.3938824E0,6.0947543E-1,1.2155852E0,-1.3098284E-2,-4.4399787E-2,-5.9406934E-3,3.9817546E-3,-3.1569187E-2,4.4762483E-3,-4.2636283E-2,-3.3809666E-2,1.9316584E-2,-1.8459918E-2,1.8175408E-2,4.3348588E-2],"categories":[],"categories_nodes":[],"categories_segments":[],"categories_sizes":[],"default_left":[0,0,0,0,0,0,0,0,0,0,0,0,0,0,0,0,0,0,0,0,0,0,0,0,0,0,0,0,0,0,0,0,0,0,0],"id":11,"left_children":[1,3,5,7,9,11,-1,13,15,-1,-1,17,19,21,23,-1,25,-1,-1,27,29,31,33,-1,-1,-1,-1,-1,-1,-1,-1,-1,-1,-1,-1],"loss_changes":[9.766704E2,1.4362842E2,1.06418945E2,5.505432E1,4.3701935E-1,4.838745E0,0E0,5.651059E1,4.0469522E0,0E0,0E0,2.3526917E0,3.666626E0,4.3615906E1,1.7206955E0,0E0,3.1276935E-1,0E0,0E0,4.216213E0,3.3843994E-2,3.0272614E1,1.9348755E1,0E0,0E0,0E0,0E0,0E0,0E0,0E0,0E0,0E0,0E0,0E0,0E0],"parents":[2147483647,0,0,1,1,2,2,3,3,4,4,5,5,7,7,8,8,11,11,12,12,13,13,14,14,16,16,19,19,20,20,21,21,22,22],"right_children":[2,4,6,8,10,12,-1,14,16,-1,-1,18,20,22,24,-1,26,-1,-1,28,30,32,34,-1,-1,-1,-1,-1,-1,-1,-1,-1,-1,-1,-1],"split_conditions":[1E0,1E0,2.0449897E-3,1E0,-5.00134E-2,9.29368E-4,2.7364962E-2,1.1583012E-2,1.1750881E-3,-4.789967E-2,-3.2611426E-2,9.881052E-3,2.0703934E-3,3.236246E-3,-3.670593E-2,-1.985198E-2,2.0981955E-3,-4.0344197E-2,-5.2941825E-2,2.2504438E-1,8.241759E-3,1E0,3.008776E-2,-1.3098284E-2,-4.4399787E-2,-5.9406934E-3,3.9817546E-3,-3.1569187E-2,4.4762483E-3,-4.2636283E-2,-3.3809666E-2,1.9316584E-2,-1.8459918E-2,1.8175408E-2,4.3348588E-2],"split_indices":[489,491,280,494,661,456,0,302,191,0,0,1634,324,112,616,0,101,0,0,1349,316,498,582,0,0,0,0,0,0,0,0,0,0,0,0],"split_type":[0,0,0,0,0,0,0,0,0,0,0,0,0,0,0,0,0,0,0,0,0,0,0,0,0,0,0,0,0,0,0,0,0,0,0],"sum_hessian":[1.3421608E3,9.5078503E2,3.913757E2,9.072158E2,4.3569202E1,3.719905E2,1.9385195E1,8.649523E2,4.226354E1,8.027806E0,3.5541397E1,1.2679267E2,2.4519783E2,8.5148E2,1.3472319E1,3.0940998E1,1.132254E1,4.145129E1,8.534138E1,2.1952868E1,2.2324496E2,7.078711E2,1.436089E2,3.0832744E0,1.0389045E1,3.177088E0,8.145452E0,1.8796347E1,3.1565208E0,1.985868E2,2.4658148E1,6.8898834E2,1.8882719E1,4.0250538E1,1.0335837E2],"tree_param":{"num_deleted":"0","num_feature":"1814","num_nodes":"35","size_leaf_vector":"1"}},{"base_weights":[-4.2961117E-2,5.389284E-1,-1.2808002E0,6.2877494E-1,-9.874655E-1,-1.3895091E0,2.5326483E-2,8.3353704E-1,1.915449E-1,-3.7203532E-1,-1.2432643E0,-1.600501E0,-1.2930771E0,8.820715E-1,-6.6076684E-1,2.6334253E-1,-1.3626391E0,1.1733609E-2,-1.767593E-2,-4.6445742E-2,-2.9052258E-2,-5.010525E-2,-1.0183709E0,-7.4666156E-3,-1.3044819E0,9.136633E-1,-3.2724224E-2,-4.164095E-2,3.358645E-1,3.3638135E-1,-4.44717E-1,-6.448837E-2,-1.0835838E-2,-3.382971E-2,-1.354946E-2,-1.3514466E0,-3.1987693E-2,2.9284054E-2,9.328416E-3,-1.8112062E-3,2.0495212E-2,8.6619165E-3,2.3596816E-2,-2.0032104E-2,2.5823526E-3,-3.5158195E-2,-4.185469E-2],"categories":[],"categories_nodes":[],"categories_segments":[],"categories_sizes":[],"default_left":[0,0,0,0,0,0,0,0,0,0,0,0,0,0,0,0,0,0,0,0,0,0,0,0,0,0,0,0,0,0,0,0,0,0,0,0,0,0,0,0,0,0,0,0,0,0,0],"id":12,"left_children":[1,3,5,7,9,11,-1,13,15,17,19,21,23,25,27,29,31,-1,-1,-1,-1,-1,33,-1,35,37,-1,-1,39,41,43,-1,-1,-1,-1,45,-1,-1,-1,-1,-1,-1,-1,-1,-1,-1,-1],"loss_changes":[9.1380457E2,1.1897963E2,9.4885864E1,7.2866394E1,7.151451E0,5.790344E0,0E0,4.085034E1,2.9533962E1,2.8203642E0,1.328331E0,3.043335E0,2.8946838E0,3.4539856E1,1.3540255E1,1.3117338E1,8.449959E0,0E0,0E0,0E0,0E0,0E0,4.2378807E-1,0E0,1.5482483E0,1.9661682E1,0E0,0E0,1.1992695E0,4.6610756E0,2.8840747E0,0E0,0E0,0E0,0E0,8.679199E-2,0E0,0E0,0E0,0E0,0E0,0E0,0E0,0E0,0E0,0E0,0E0],"parents":[2147483647,0,0,1,1,2,2,3,3,4,4,5,5,7,7,8,8,9,9,10,10,11,11,12,12,13,13,14,14,15,15,16,16,22,22,24,24,25,25,28,28,29,29,30,30,35,35],"right_children":[2,4,6,8,10,12,-1,14,16,18,20,22,24,26,28,30,32,-1,-1,-1,-1,-1,34,-1,36,38,-1,-1,40,42,44,-1,-1,-1,-1,46,-1,-1,-1,-1,-1,-1,-1,-1,-1,-1,-1],"split_conditions":[1E0,7.8849636E-2,7.575758E-3,2E0,-7.4366154E-3,-2.1365559E-2,2.5326483E-2,1.5834507E-2,1E0,1.0174145E-1,1.998777E-2,-5.196509E-2,-5.046587E-3,1E0,4.1493777E-2,1E0,1E0,1.1733609E-2,-1.767593E-2,-4.6445742E-2,-2.9052258E-2,-5.010525E-2,2.0980002E-2,-7.4666156E-3,6.259781E-3,4.4984257E-4,-3.2724224E-2,-4.164095E-2,-4.984964E-3,9.3196647E-4,3.6764706E-3,-6.448837E-2,-1.0835838E-2,-3.382971E-2,-1.354946E-2,1.7409204E-2,-3.1987693E-2,2.9284054E-2,9.328416E-3,-1.8112062E-3,2.0495212E-2,8.6619165E-3,2.3596816E-2,-2.0032104E-2,2.5823526E-3,-3.5158195E-2,-4.185469E-2],"split_indices":[489,1356,170,507,1320,1031,0,1364,1796,1601,1298,792,734,491,37,494,496,0,0,0,0,0,1127,0,67,455,0,0,634,397,1,0,0,0,0,723,0,0,0,0,0,0,0,0,0,0,0],"split_type":[0,0,0,0,0,0,0,0,0,0,0,0,0,0,0,0,0,0,0,0,0,0,0,0,0,0,0,0,0,0,0,0,0,0,0,0,0,0,0,0,0,0,0,0,0,0,0],"sum_hessian":[1.2667115E3,8.620428E2,4.0466873E2,8.146773E2,4.736544E1,3.8530396E2,1.9364777E1,5.5422034E2,2.6045697E2,1.462745E1,3.2737988E1,1.1596881E2,2.6933514E2,5.3718256E2,1.7037796E1,2.4974998E2,1.0706977E1,3.062857E0,1.1564593E1,1.3323764E1,1.9414225E1,1.01903114E2,1.40657E1,3.1565208E0,2.6617862E2,5.292446E2,7.937931E0,9.62297E0,7.414826E0,2.2687225E2,2.2877743E1,5.3534884E0,5.3534884E0,1.09620075E1,3.1036916E0,2.1844128E2,4.7737328E1,4.7897867E2,5.0265972E1,3.8493488E0,3.565477E0,2.0664098E2,2.0231266E1,1.5927589E1,6.950154E0,4.822074E1,1.7022054E2],"tree_param":{"num_deleted":"0","num_feature":"1814","num_nodes":"47","size_leaf_vector":"1"}},{"base_weights":[2.0103693E-2,5.3851396E-1,-1.2605433E0,6.1851466E-1,-1.1490682E0,-1.3146845E0,2.5528502E-2,8.042412E-1,1.786462E-1,-3.0769905E-2,-4.536013E-2,-1.203331E0,-1.4846804E0,9.3739516E-1,6.998616E-3,2.6838723E-1,-5.918645E-1,-1.2457343E0,-1.0179735E0,-4.7860764E-2,-1.2799125E0,9.545391E-1,-4.8174098E-2,3.4330568E-1,-1.1196139E0,2.1912506E-1,2.3700504E-2,-1.9688653E-2,-1.2694033E-3,-3.8375415E-2,-3.0478602E-2,-1.1646225E-2,-3.1668715E-2,-3.9751355E-2,-2.5224317E-2,2.5122475E-2,3.8723905E-2,-9.682132E-3,1.49068525E-2,-4.2992994E-2,2.2073337E-3,-5.487119E-4,8.649399E-3],"categories":[],"categories_nodes":[],"categories_segments":[],"categories_sizes":[],"default_left":[0,0,0,0,0,0,0,0,0,0,0,0,0,0,0,0,0,0,0,0,0,0,0,0,0,0,0,0,0,0,0,0,0,0,0,0,0,0,0,0,0,0,0],"id":13,"left_children":[1,3,5,7,9,11,-1,13,15,-1,-1,17,19,21,23,25,27,29,31,-1,33,35,-1,37,39,41,-1,-1,-1,-1,-1,-1,-1,-1,-1,-1,-1,-1,-1,-1,-1,-1,-1],"loss_changes":[9.1598883E2,1.3330301E2,4.6569153E1,7.651166E1,4.5570374E-1,5.558655E0,0E0,6.999887E1,1.9509506E1,0E0,0E0,6.161499E-1,1.3417053E0,2.6170258E1,3.6524975E1,6.285591E0,1.016861E0,1.6543579E-1,7.7814865E-1,0E0,2.4246216E-2,2.1049316E1,0E0,7.7532063E0,8.395391E0,3.800417E0,0E0,0E0,0E0,0E0,0E0,0E0,0E0,0E0,0E0,0E0,0E0,0E0,0E0,0E0,0E0,0E0,0E0],"parents":[2147483647,0,0,1,1,2,2,3,3,4,4,5,5,7,7,8,8,11,11,12,12,13,13,14,14,15,15,16,16,17,17,18,18,20,20,21,21,23,23,24,24,25,25],"right_children":[2,4,6,8,10,12,-1,14,16,-1,-1,18,20,22,24,26,28,30,32,-1,34,36,-1,38,40,42,-1,-1,-1,-1,-1,-1,-1,-1,-1,-1,-1,-1,-1,-1,-1,-1,-1],"split_conditions":[1E0,1E0,8.510638E-3,2E0,1.0397944E-2,6.660375E-2,2.5528502E-2,2.7883744E-2,1E0,-3.0769905E-2,-4.536013E-2,4.219409E-3,1.205071E-2,1E0,6.084104E-2,7.284901E-2,1.7090723E-3,6.259781E-3,1.8289918E-2,-4.7860764E-2,8.247423E-3,3.236246E-3,-4.8174098E-2,-3.7911765E-3,-1.8367605E-2,-6.237809E-2,2.3700504E-2,-1.9688653E-2,-1.2694033E-3,-3.8375415E-2,-3.0478602E-2,-1.1646225E-2,-3.1668715E-2,-3.9751355E-2,-2.5224317E-2,2.5122475E-2,3.8723905E-2,-9.682132E-3,1.49068525E-2,-4.2992994E-2,2.2073337E-3,-5.487119E-4,8.649399E-3],"split_indices":[489,491,107,507,672,932,0,1408,494,0,0,110,476,490,1313,1214,1071,67,818,0,67,112,0,594,758,1542,0,0,0,0,0,0,0,0,0,0,0,0,0,0,0,0,0],"split_type":[0,0,0,0,0,0,0,0,0,0,0,0,0,0,0,0,0,0,0,0,0,0,0,0,0,0,0,0,0,0,0,0,0,0,0,0,0,0,0,0,0,0,0],"sum_hessian":[1.3776853E3,9.8110864E2,3.9657663E2,9.3730853E2,4.38001E1,3.870301E2,9.546525E0,6.584581E2,2.7885043E2,3.5541397E1,8.258699E0,2.3873112E2,1.4829897E2,5.640721E2,9.4386055E1,2.503446E2,2.8505846E1,1.8962964E2,4.9101486E1,9.1858025E1,5.644094E1,5.609155E2,3.1565208E0,7.322331E1,2.1162743E1,2.3003993E2,2.0304663E1,2.5340902E1,3.1649437E0,1.6154825E2,2.808139E1,3.4079807E0,4.569351E1,4.9350822E1,7.0901194E0,4.186013E2,1.4231425E2,1.3514805E1,5.9708508E1,1.66003E1,4.562444E0,5.207685E1,1.7796309E2],"tree_param":{"num_deleted":"0","num_feature":"1814","num_nodes":"43","size_leaf_vector":"1"}},{"base_weights":[7.1056314E-2,5.751157E-1,-1.1641444E0,6.551006E-1,-3.261022E-1,-1.2760555E0,2.508714E-2,7.7169716E-1,2.9432347E-1,-4.3078873E-2,-4.1966137E-2,-4.471275E-2,-1.2077521E0,-3.137556E-1,8.2766825E-1,3.8422382E-1,-1.9033011E-2,9.05215E-2,-1.73038E-2,-1.22089E0,-1.0784581E-2,-4.311444E-2,4.3242037E-1,7.172265E-1,1.1743063E0,3.2337826E-1,7.574829E-1,3.0807874E-1,1.9922215E-2,-1.2828119E0,-3.0568114E-2,-2.8224152E-3,1.6051617E-2,2.3496034E-2,8.824161E-3,3.9850406E-2,1.4546946E-2,1.0639707E-2,-3.6177963E-3,1.1385862E-2,2.4307134E-2,1.933612E-3,1.1500896E-2,-4.7370484E-3,1.8369199E-3,-3.9144162E-2,-2.9333718E-2],"categories":[],"categories_nodes":[],"categories_segments":[],"categories_sizes":[],"default_left":[0,0,0,0,0,0,0,0,0,0,0,0,0,0,0,0,0,0,0,0,0,0,0,0,0,0,0,0,0,0,0,0,0,0,0,0,0,0,0,0,0,0,0,0,0,0,0],"id":14,"left_children":[1,3,5,7,9,11,-1,13,15,-1,17,-1,19,21,23,25,-1,27,-1,29,-1,-1,31,33,35,37,39,41,43,45,-1,-1,-1,-1,-1,-1,-1,-1,-1,-1,-1,-1,-1,-1,-1,-1,-1],"loss_changes":[8.12259E2,6.699295E1,8.571185E1,3.5579987E1,2.3965141E1,3.4487305E0,0E0,3.9306335E1,1.7738169E1,0E0,4.423254E0,0E0,2.649475E0,2.7647192E1,2.2566406E1,4.1077843E0,0E0,7.665068E-1,0E0,2.1003113E0,0E0,0E0,1.1387239E0,1.278508E1,1.4879181E1,2.3554535E0,2.132616E-1,2.0007324E-1,2.9650623E-1,9.725952E-2,0E0,0E0,0E0,0E0,0E0,0E0,0E0,0E0,0E0,0E0,0E0,0E0,0E0,0E0,0E0,0E0,0E0],"parents":[2147483647,0,0,1,1,2,2,3,3,4,4,5,5,7,7,8,8,10,10,12,12,13,13,14,14,15,15,17,17,19,19,22,22,23,23,24,24,25,25,26,26,27,27,28,28,29,29],"right_children":[2,4,6,8,10,12,-1,14,16,-1,18,-1,20,22,24,26,-1,28,-1,30,-1,-1,32,34,36,38,40,42,44,46,-1,-1,-1,-1,-1,-1,-1,-1,-1,-1,-1,-1,-1,-1,-1,-1,-1],"split_conditions":[1E0,3.093492E-2,7.0921984E-3,2E0,-1.11661404E-1,-2.48495E-2,2.508714E-2,-6.998009E-2,1E0,-4.3078873E-2,1.2620579E-1,-4.471275E-2,5.7707693E-2,-1.7841315E-1,3.218884E-3,3.2751784E-2,-1.9033011E-2,2.7835334E-2,-1.73038E-2,6.259781E-3,-1.0784581E-2,-4.311444E-2,-7.0542604E-2,1E0,3.5460992E-3,1E0,1.510574E-3,-9.67412E-3,2.7698146E-2,4.219409E-3,-3.0568114E-2,-2.8224152E-3,1.6051617E-2,2.3496034E-2,8.824161E-3,3.9850406E-2,1.4546946E-2,1.0639707E-2,-3.6177963E-3,1.1385862E-2,2.4307134E-2,1.933612E-3,1.1500896E-2,-4.7370484E-3,1.8369199E-3,-3.9144162E-2,-2.9333718E-2],"split_indices":[489,1551,170,507,830,1526,0,1578,494,0,1235,0,1319,1048,112,516,0,1725,0,67,0,0,543,1809,223,1796,319,1780,980,110,0,0,0,0,0,0,0,0,0,0,0,0,0,0,0,0,0],"split_type":[0,0,0,0,0,0,0,0,0,0,0,0,0,0,0,0,0,0,0,0,0,0,0,0,0,0,0,0,0,0,0,0,0,0,0,0,0,0,0,0,0,0,0,0,0,0,0],"sum_hessian":[1.3025183E3,9.2541174E2,3.7710663E2,8.502256E2,7.5186134E1,3.5747012E2,1.9636503E1,6.4170074E2,2.0852487E2,1.4498794E1,6.0687344E1,8.134587E1,2.7612424E2,3.1240726E1,6.1045996E2,1.9065634E2,1.7868544E1,4.9304386E1,1.1382958E1,2.714803E2,4.643964E0,1.2099107E1,1.914162E1,4.652853E2,1.451747E2,1.6553807E2,2.5118267E1,1.1255602E1,3.8048782E1,2.0367769E2,6.780259E1,3.1362534E0,1.6005367E1,4.0178186E2,6.350345E1,1.1790363E2,2.7271063E1,1.5483109E2,1.0706977E1,4.080241E0,2.1038027E1,3.0952687E0,8.160333E0,6.640478E0,3.1408306E1,1.8692195E2,1.6755732E1],"tree_param":{"num_deleted":"0","num_feature":"1814","num_nodes":"47","size_leaf_vector":"1"}},{"base_weights":[4.7225933E-4,5.096497E-1,-1.1672417E0,5.655417E-1,-4.047717E-2,-1.2719647E0,2.3877671E-2,1.0499843E0,4.5116884E-1,-1.5153328E0,-1.1979964E0,1.12119E0,-2.8790379E-2,4.870822E-1,-3.1697646E-2,-4.7507364E-2,-2.8956698E-2,-1.2106402E0,-7.284624E-3,4.656671E-1,1.282035E0,6.0286933E-1,4.8644315E-2,-3.771193E-2,-9.7451806E-1,1.9240273E-2,-1.241108E-3,3.9667357E-2,1.1639174E-2,1.9074965E-2,-5.2107953E-2,5.231355E-3,-2.6470732E-2,-1.014644E-2,-3.0260524E-2],"categories":[],"categories_nodes":[],"categories_segments":[],"categories_sizes":[],"default_left":[0,0,0,0,0,0,0,0,0,0,0,0,0,0,0,0,0,0,0,0,0,0,0,0,0,0,0,0,0,0,0,0,0,0,0],"id":15,"left_children":[1,3,5,7,-1,9,-1,11,13,15,17,19,-1,21,-1,-1,-1,23,-1,25,27,29,31,-1,33,-1,-1,-1,-1,-1,-1,-1,-1,-1,-1],"loss_changes":[7.8306976E2,9.604913E1,8.322864E1,4.8897003E1,0E0,5.02594E0,0E0,2.532228E1,3.9643387E1,1.6554413E0,3.2836304E0,1.6705276E1,0E0,3.5835968E1,0E0,0E0,0E0,1.9769897E0,0E0,3.0463352E0,4.2036133E0,4.4203094E1,1.7558834E1,0E0,7.9899216E-1,0E0,0E0,0E0,0E0,0E0,0E0,0E0,0E0,0E0,0E0],"parents":[2147483647,0,0,1,1,2,2,3,3,5,5,7,7,8,8,9,9,10,10,11,11,13,13,17,17,19,19,20,20,21,21,22,22,24,24],"right_children":[2,4,6,8,-1,10,-1,12,14,16,18,20,-1,22,-1,-1,-1,24,-1,26,28,30,32,-1,34,-1,-1,-1,-1,-1,-1,-1,-1,-1,-1],"split_conditions":[1E0,4.452321E-2,2.0661156E-3,-6.374028E-2,-4.047717E-2,-2.1118388E-2,2.3877671E-2,0E0,1E0,5.4749325E-2,3.2467532E-3,3.1746032E-3,-2.8790379E-2,2.2981629E-2,-3.1697646E-2,-4.7507364E-2,-2.8956698E-2,6.259781E-3,-7.284624E-3,3.012048E-3,4.1167535E-2,1E0,4.6470784E-2,-3.771193E-2,-9.8631226E-2,1.9240273E-2,-1.241108E-3,3.9667357E-2,1.1639174E-2,1.9074965E-2,-5.2107953E-2,5.231355E-3,-2.6470732E-2,-1.014644E-2,-3.0260524E-2],"split_indices":[490,514,280,944,0,1360,0,1036,491,1771,141,378,0,814,0,0,0,67,0,296,541,498,1193,0,1014,0,0,0,0,0,0,0,0,0,0],"split_type":[0,0,0,0,0,0,0,0,0,0,0,0,0,0,0,0,0,0,0,0,0,0,0,0,0,0,0,0,0,0,0,0,0,0,0],"sum_hessian":[1.3150271E3,9.161199E2,3.989072E2,8.90054E2,2.6065887E1,3.790398E2,1.9867397E1,1.6843655E2,7.2161743E2,8.380871E1,2.9523108E2,1.6309976E2,5.3367915E0,7.0549023E2,1.6127172E1,7.288768E1,1.0921023E1,2.9111017E2,4.1209264E0,3.29022E1,1.3019757E2,5.5780457E2,1.476857E2,2.3966556E2,5.1444588E1,2.4239098E1,8.663103E0,1.2413568E2,6.0618815E0,5.5077356E2,7.030989E0,1.3082954E2,1.6856161E1,3.1769383E0,4.826765E1],"tree_param":{"num_deleted":"0","num_feature":"1814","num_nodes":"35","size_leaf_vector":"1"}},{"base_weights":[-3.0847818E-2,4.7113577E-1,-1.1303625E0,5.336341E-1,-3.2859564E-2,-1.2238113E0,6.171273E-1,7.0837593E-1,1.1749528E-1,-1.4535608E0,-1.1253676E0,1.2420646E-2,2.447931E-2,7.563101E-1,-3.066376E-2,1.8846068E-1,-1.3889959E0,-4.5443114E-2,-8.9225173E-1,-2.9902803E-3,-1.1450826E0,7.8785366E-1,-9.66499E-1,2.671637E-1,-4.5022932E-1,-6.1668217E-2,-1.5112951E-2,-3.0090064E-2,-1.2871221E-2,-1.2065444E0,-9.2631924E-1,2.4098355E-2,-4.67527E-2,-3.8089644E-2,-4.2244154E-3,1.0955845E-2,2.7159462E-3,3.0018054E-3,-1.9226687E-2,-3.760658E-2,-3.0596193E-2,-2.9136626E-2,-4.1784504E-3],"categories":[],"categories_nodes":[],"categories_segments":[],"categories_sizes":[],"default_left":[0,0,0,0,0,0,0,0,0,0,0,0,0,0,0,0,0,0,0,0,0,0,0,0,0,0,0,0,0,0,0,0,0,0,0,0,0,0,0,0,0,0,0],"id":16,"left_children":[1,3,5,7,-1,9,11,13,15,17,19,-1,-1,21,-1,23,25,-1,27,-1,29,31,33,35,37,-1,-1,-1,-1,39,41,-1,-1,-1,-1,-1,-1,-1,-1,-1,-1,-1,-1],"loss_changes":[7.2414655E2,8.877417E1,6.791022E1,6.295627E1,0E0,7.2008057E0,5.321007E-1,5.1401154E1,2.77986E1,2.5570526E0,5.5061035E0,0E0,0E0,3.3066956E1,0E0,1.2529472E1,5.872799E0,0E0,2.6834106E-1,0E0,2.547577E0,2.2399292E1,2.6091146E0,3.783453E0,2.9446993E0,0E0,0E0,0E0,0E0,5.599365E-1,2.1297684E0,0E0,0E0,0E0,0E0,0E0,0E0,0E0,0E0,0E0,0E0,0E0,0E0],"parents":[2147483647,0,0,1,1,2,2,3,3,5,5,6,6,7,7,8,8,9,9,10,10,13,13,15,15,16,16,18,18,20,20,21,21,22,22,23,23,24,24,29,29,30,30],"right_children":[2,4,6,8,-1,10,12,14,16,18,20,-1,-1,22,-1,24,26,-1,28,-1,30,32,34,36,38,-1,-1,-1,-1,40,42,-1,-1,-1,-1,-1,-1,-1,-1,-1,-1,-1,-1],"split_conditions":[3.0560326E-2,1E0,4.2958546E-2,2E0,-3.2859564E-2,-2.1715717E-2,4.474553E-2,1E0,1E0,-5.196509E-2,3.0054646E-2,1.2420646E-2,2.447931E-2,1.3605442E-2,-3.066376E-2,1E0,1.0989011E-2,-4.5443114E-2,6.680585E-2,-2.9902803E-3,9.29368E-4,1E0,5.0583657E-2,4E0,-3.1432174E-3,-6.1668217E-2,-1.5112951E-2,-3.0090064E-2,-1.2871221E-2,9.090909E-3,2.0661156E-3,2.4098355E-2,-4.67527E-2,-3.8089644E-2,-4.2244154E-3,1.0955845E-2,2.7159462E-3,3.0018054E-3,-1.9226687E-2,-3.760658E-2,-3.0596193E-2,-2.9136626E-2,-4.1784504E-3],"split_indices":[1223,489,1015,507,0,1031,650,491,1796,792,19,0,0,401,0,494,0,0,17,0,141,490,0,507,1599,0,0,0,0,124,315,0,0,0,0,0,0,0,0,0,0,0,0],"split_type":[0,0,0,0,0,0,0,0,0,0,0,0,0,0,0,0,0,0,0,0,0,0,0,0,0,0,0,0,0,0,0,0,0,0,0,0,0,0,0,0,0,0,0],"sum_hessian":[1.3100413E3,8.9980615E2,4.102351E2,8.659171E2,3.3888992E1,3.8969543E2,2.0539658E1,6.093439E2,2.5657324E2,1.1276257E2,2.7693286E2,1.1685811E1,8.853847E0,5.93468E2,1.5875862E1,2.4586627E2,1.0706977E1,1.0014348E2,1.2619091E1,5.3367915E0,2.7159607E2,5.833303E2,1.0137734E1,2.194109E2,2.6455364E1,5.3534884E0,5.3534884E0,9.243672E0,3.3754191E0,2.0850188E2,6.309421E1,5.8017377E2,3.1565208E0,7.0218983E0,3.115836E0,1.4041359E2,7.899732E1,6.9297366E0,1.9525627E1,1.6199292E2,4.650895E1,5.9467484E1,3.626729E0],"tree_param":{"num_deleted":"0","num_feature":"1814","num_nodes":"43","size_leaf_vector":"1"}},{"base_weights":[-4.6866275E-2,4.3424103E-1,-1.1214856E0,4.8606494E-1,-1.126895E0,-1.1751804E0,1.9024823E-2,6.545328E-1,1.4628202E-1,-3.550342E-2,-1.9603226E-2,-1.1932575E0,4.6802168E-5,7.0187736E-1,-2.979836E-2,2.1937373E-1,-7.4805623E-1,-1.4917359E0,-1.113365E0,8.016911E-1,-1.7815031E-1,3.028898E-1,-4.570177E-1,-2.3661485E-1,-6.0109362E-2,-1.8846506E-2,-4.5915734E-2,-1.1667129E0,-8.931225E-1,3.3952773E-2,2.1378595E-2,6.4556035E-3,-3.8923804E-2,1.1116109E-2,2.0574959E-4,-1.8336818E-2,2.9595394E-3,-2.349884E-3,-1.4730923E-2,-3.337403E-2,-3.9109126E-2,-2.8369443E-2,2.9475456E-3],"categories":[],"categories_nodes":[],"categories_segments":[],"categories_sizes":[],"default_left":[0,0,0,0,0,0,0,0,0,0,0,0,0,0,0,0,0,0,0,0,0,0,0,0,0,0,0,0,0,0,0,0,0,0,0,0,0,0,0,0,0,0,0],"id":17,"left_children":[1,3,5,7,9,11,-1,13,15,-1,-1,17,-1,19,-1,21,23,25,27,29,31,33,35,37,-1,-1,-1,39,41,-1,-1,-1,-1,-1,-1,-1,-1,-1,-1,-1,-1,-1,-1],"loss_changes":[6.815325E2,7.4221985E1,3.917383E1,5.0396515E1,1.815033E-2,8.423462E0,0E0,4.6679916E1,1.9360676E1,0E0,0E0,7.637085E0,0E0,5.0521423E1,0E0,1.5517825E1,1.3919256E1,1.697525E0,2.6181946E0,1.4342834E1,2.6361681E1,4.8623466E0,2.6583943E0,6.485682E-1,0E0,0E0,0E0,3.881836E-1,3.4781113E0,0E0,0E0,0E0,0E0,0E0,0E0,0E0,0E0,0E0,0E0,0E0,0E0,0E0,0E0],"parents":[2147483647,0,0,1,1,2,2,3,3,4,4,5,5,7,7,8,8,11,11,13,13,15,15,16,16,17,17,18,18,19,19,20,20,21,21,22,22,23,23,27,27,28,28],"right_children":[2,4,6,8,10,12,-1,14,16,-1,-1,18,-1,20,-1,22,24,26,28,30,32,34,36,38,-1,-1,-1,40,42,-1,-1,-1,-1,-1,-1,-1,-1,-1,-1,-1,-1,-1,-1],"split_conditions":[3.0560326E-2,1E0,2.0661156E-3,2E0,1E0,8.6319596E-2,1.9024823E-2,1E0,1E0,-3.550342E-2,-1.9603226E-2,6.134969E-3,4.6802168E-5,2.784634E-3,-2.979836E-2,1E0,1E0,-4.2875737E-2,9.29368E-4,-1.7760055E-2,2.072539E-3,1E0,1.1750881E-3,1.0989011E-2,-6.0109362E-2,-1.8846506E-2,-4.5915734E-2,1.5944924E-2,2.1645022E-3,3.3952773E-2,2.1378595E-2,6.4556035E-3,-3.8923804E-2,1.1116109E-2,2.0574959E-4,-1.8336818E-2,2.9595394E-3,-2.349884E-3,-1.4730923E-2,-3.337403E-2,-3.9109126E-2,-2.8369443E-2,2.9475456E-3],"split_indices":[1223,490,280,507,1800,1172,0,491,1796,0,0,399,0,642,0,494,498,1740,141,576,433,500,304,0,0,0,0,468,131,0,0,0,0,0,0,0,0,0,0,0,0,0,0],"split_type":[0,0,0,0,0,0,0,0,0,0,0,0,0,0,0,0,0,0,0,0,0,0,0,0,0,0,0,0,0,0,0,0,0,0,0,0,0,0,0,0,0,0,0],"sum_hessian":[1.3162842E3,9.0963586E2,4.0664825E2,8.810761E2,2.8559805E1,3.949012E2,1.1747063E1,5.8841003E2,2.9266605E2,2.4172844E1,4.386961E0,3.8891272E2,5.9884853E0,5.725342E2,1.5875862E1,2.712521E2,2.1413954E1,7.838698E1,3.1052573E2,5.142916E2,5.8242546E1,2.419322E2,2.931989E1,1.6060465E1,5.3534884E0,4.108932E0,7.4278046E1,2.4651637E2,6.400936E1,1.06804375E2,4.0748724E2,4.3695312E1,1.4547235E1,1.9672598E2,4.5206226E1,2.2872356E1,6.4475336E0,1.0706977E1,5.3534884E0,1.8310184E2,6.3414536E1,6.083242E1,3.1769383E0],"tree_param":{"num_deleted":"0","num_feature":"1814","num_nodes":"43","size_leaf_vector":"1"}},{"base_weights":[-6.294268E-2,4.2623618E-1,-1.1064885E0,4.9972963E-1,-1.0186491E0,-1.1498735E0,2.228513E-2,6.784209E-1,1.0847894E-1,-2.7313646E-2,-4.0498734E-2,-1.421386E0,-1.0838451E0,7.275226E-1,-1.1093423E0,1.8326037E-1,-7.290583E-1,-2.4233349E-2,-4.3724734E-2,-9.017982E-1,-1.1368076E0,7.984133E-1,6.344291E-2,-1.4317501E-2,-3.6615968E-2,2.511483E-1,-3.8564557E-1,-2.305176E-1,-5.85899E-2,-2.895104E-2,6.5213824E-3,-4.168158E-2,-1.1025668E0,2.4519E-2,-4.4561237E-2,6.202154E-3,-3.048881E-2,1.5611264E-4,9.737328E-3,-1.7767636E-2,2.9524285E-3,-2.285409E-3,-1.4358551E-2,-3.092947E-2,-3.5718367E-2],"categories":[],"categories_nodes":[],"categories_segments":[],"categories_sizes":[],"default_left":[0,0,0,0,0,0,0,0,0,0,0,0,0,0,0,0,0,0,0,0,0,0,0,0,0,0,0,0,0,0,0,0,0,0,0,0,0,0,0,0,0,0,0,0,0],"id":18,"left_children":[1,3,5,7,9,11,-1,13,15,-1,-1,17,19,21,23,25,27,-1,-1,29,31,33,35,-1,-1,37,39,41,-1,-1,-1,-1,43,-1,-1,-1,-1,-1,-1,-1,-1,-1,-1,-1,-1],"loss_changes":[6.774422E2,9.646394E1,3.48349E1,6.0090256E1,3.505211E-1,5.885193E0,0E0,5.264746E1,1.7106642E1,0E0,0E0,5.4660034E-1,2.2278442E0,2.7036255E1,5.548363E-1,9.736146E0,1.3226416E1,0E0,0E0,5.933441E0,6.95282E-1,2.3634308E1,8.964762E0,0E0,0E0,4.036048E0,2.7587862E0,6.168045E-1,0E0,0E0,0E0,0E0,2.3233032E-1,0E0,0E0,0E0,0E0,0E0,0E0,0E0,0E0,0E0,0E0,0E0,0E0],"parents":[2147483647,0,0,1,1,2,2,3,3,4,4,5,5,7,7,8,8,11,11,12,12,13,13,14,14,15,15,16,16,19,19,20,20,21,21,22,22,25,25,26,26,27,27,32,32],"right_children":[2,4,6,8,10,12,-1,14,16,-1,-1,18,20,22,24,26,28,-1,-1,30,32,34,36,-1,-1,38,40,42,-1,-1,-1,-1,44,-1,-1,-1,-1,-1,-1,-1,-1,-1,-1,-1,-1],"split_conditions":[1E0,1E0,8.510638E-3,2E0,1.6193775E-2,-2.349994E-2,2.228513E-2,1.1583012E-2,1E0,-2.7313646E-2,-4.0498734E-2,2.631579E-2,2.0920502E-3,3.25E0,5.0832477E0,1E0,1E0,-2.4233349E-2,-4.3724734E-2,2.1276595E-3,1.1053788E-2,1E0,2.9954135E-2,-1.4317501E-2,-3.6615968E-2,-2.4258152E-2,6.8610637E-3,1.0989011E-2,-5.85899E-2,-2.895104E-2,6.5213824E-3,-4.168158E-2,-2.9147696E-2,2.4519E-2,-4.4561237E-2,6.202154E-3,-3.048881E-2,1.5611264E-4,9.737328E-3,-1.7767636E-2,2.9524285E-3,-2.285409E-3,-1.4358551E-2,-3.092947E-2,-3.5718367E-2],"split_indices":[489,491,107,507,959,1360,0,302,1796,0,0,13,324,42,23,494,498,0,0,315,476,490,730,0,0,1694,388,0,0,0,0,0,582,0,0,0,0,0,0,0,0,0,0,0,0],"split_type":[0,0,0,0,0,0,0,0,0,0,0,0,0,0,0,0,0,0,0,0,0,0,0,0,0,0,0,0,0,0,0,0,0,0,0,0,0,0,0,0,0,0,0,0,0],"sum_hessian":[1.3251438E3,9.0261847E2,4.2252536E2,8.595519E2,4.3066586E1,4.1320972E2,9.315632E0,5.8955664E2,2.6999524E2,3.529009E1,7.7764964E0,7.681498E1,3.3639474E2,5.7437427E2,1.5182382E1,2.4858128E2,2.1413954E1,5.5675344E0,7.1247444E1,7.9873665E1,2.565211E2,5.1879095E2,5.5583324E1,3.062857E0,1.2119524E1,2.2257928E2,2.6002E1,1.6060465E1,5.3534884E0,7.573232E1,4.1413436E0,2.5898983E1,2.306221E2,5.151726E2,3.6183062E0,4.9784748E1,5.798577E0,5.1420837E1,1.7115845E2,1.8067024E1,7.9349766E0,1.0706977E1,5.3534884E0,1.3421198E2,9.6410126E1],"tree_param":{"num_deleted":"0","num_feature":"1814","num_nodes":"45","size_leaf_vector":"1"}},{"base_weights":[5.996191E-3,4.4209927E-1,-9.938024E-1,6.412259E-1,4.103864E-2,-1.0847734E0,5.0273126E-1,6.836911E-1,-2.8186526E-2,1.347466E-1,-2.666095E-2,-1.1020259E0,-2.069553E-1,-2.2788737E-2,2.1729298E-2,7.203715E-1,-3.1626727E-2,2.0596133E-1,-7.1054316E-1,-1.0438504E0,-1.3669901E0,-1.0463922E-2,-1.8966926E-3,1.6152813E-1,7.8767544E-1,2.7991667E-1,-4.2353982E-1,-1.2863022E0,-7.409012E-2,-8.881565E-1,-1.1097072E0,-4.253981E-2,-2.3499012E-2,1.0728829E-2,-6.7193843E-3,2.4105046E-2,-3.311898E-2,1.442736E-2,5.8382694E-3,-1.743991E-2,2.805995E-3,-5.7108853E-2,-1.3995592E-2,5.399697E-3,-9.495264E-3,-2.732939E-2,-1.3633644E-2,-3.357614E-2,-1.0389868E-2],"categories":[],"categories_nodes":[],"categories_segments":[],"categories_sizes":[],"default_left":[0,0,0,0,0,0,0,0,0,0,0,0,0,0,0,0,0,0,0,0,0,0,0,0,0,0,0,0,0,0,0,0,0,0,0,0,0,0,0,0,0,0,0,0,0,0,0,0,0],"id":19,"left_children":[1,3,5,7,9,11,13,15,-1,17,-1,19,21,-1,-1,23,-1,25,27,29,31,-1,-1,33,35,37,39,41,43,45,47,-1,-1,-1,-1,-1,-1,-1,-1,-1,-1,-1,-1,-1,-1,-1,-1,-1,-1],"loss_changes":[5.8949664E2,7.51537E1,5.6448395E1,4.2864777E1,2.7423685E1,5.6390686E0,7.3231206E0,3.9843445E1,0E0,1.7336603E1,0E0,4.426117E0,1.5528771E-1,0E0,0E0,2.2478882E1,0E0,1.2416159E1,8.118147E0,2.2502441E0,8.282242E-1,0E0,0E0,5.059127E0,1.6938416E1,3.9698372E0,2.3526282E0,5.0365086E0,7.7804494E-1,5.641403E-1,1.1911926E0,0E0,0E0,0E0,0E0,0E0,0E0,0E0,0E0,0E0,0E0,0E0,0E0,0E0,0E0,0E0,0E0,0E0,0E0],"parents":[2147483647,0,0,1,1,2,2,3,3,4,4,5,5,6,6,7,7,9,9,11,11,12,12,15,15,17,17,18,18,19,19,20,20,23,23,24,24,25,25,26,26,27,27,28,28,29,29,30,30],"right_children":[2,4,6,8,10,12,14,16,-1,18,-1,20,22,-1,-1,24,-1,26,28,30,32,-1,-1,34,36,38,40,42,44,46,48,-1,-1,-1,-1,-1,-1,-1,-1,-1,-1,-1,-1,-1,-1,-1,-1,-1,-1],"split_conditions":[3.0560326E-2,2E0,4.2958546E-2,1E0,1E0,-4.354217E-2,5.8020476E-2,9.1110624E-2,-2.8186526E-2,1E0,-2.666095E-2,5.524862E-3,2.3584906E-3,-2.2788737E-2,2.1729298E-2,-2.9705274E-3,-3.1626727E-2,1E0,1E0,5.0092764E-2,5.988024E-3,-1.0463922E-2,-1.8966926E-3,7.4786264E-3,6.329114E-3,3E0,3.1120332E-3,1.0989011E-2,1E0,2.7510317E-3,1.0869565E-2,-4.253981E-2,-2.3499012E-2,1.0728829E-2,-6.7193843E-3,2.4105046E-2,-3.311898E-2,1.442736E-2,5.8382694E-3,-1.743991E-2,2.805995E-3,-5.7108853E-2,-1.3995592E-2,5.399697E-3,-9.495264E-3,-2.732939E-2,-1.3633644E-2,-3.357614E-2,-1.0389868E-2],"split_indices":[1223,507,1015,491,490,1290,2,479,0,1796,0,454,350,0,0,1231,0,494,499,41,387,0,0,759,273,507,333,0,496,146,456,0,0,0,0,0,0,0,0,0,0,0,0,0,0,0,0,0,0],"split_type":[0,0,0,0,0,0,0,0,0,0,0,0,0,0,0,0,0,0,0,0,0,0,0,0,0,0,0,0,0,0,0,0,0,0,0,0,0,0,0,0,0,0,0,0,0,0,0,0,0],"sum_hessian":[1.3500016E3,9.40376E2,4.0962567E2,6.279834E2,3.1239258E2,3.8641168E2,2.3213976E1,6.1210754E2,1.5875862E1,2.8456628E2,2.7826292E1,3.7871313E2,7.698548E0,3.1036916E0,2.0110285E1,6.000289E2,1.207869E1,2.6315234E2,2.1413954E1,3.145831E2,6.4130035E1,3.1566708E0,4.541877E0,6.486199E1,5.351669E2,2.3598372E2,2.716861E1,1.0706977E1,1.0706977E1,9.781707E1,2.1676604E2,5.7662083E1,6.4679513E0,4.304052E1,2.1821474E1,5.3129706E2,3.869766E0,6.8932625E1,1.670511E2,2.0721075E1,6.4475336E0,5.3534884E0,5.3534884E0,5.3534884E0,5.3534884E0,9.188141E1,5.935656E0,2.1364194E2,3.124109E0],"tree_param":{"num_deleted":"0","num_feature":"1814","num_nodes":"49","size_leaf_vector":"1"}},{"base_weights":[-1.9670185E-2,3.9770874E-1,-1.0234052E0,4.615181E-1,-7.7530247E-1,-1.0716095E0,1.7529642E-2,6.065535E-1,1.3717319E-1,-2.7469835E-1,-1.015088E0,-1.2879366E0,-1.0123464E0,6.6343486E-1,-1.9719857E-1,1.9176349E-1,-7.405657E-1,-1.4773526E-2,7.9506105E-3,-2.3034804E-2,-3.927995E-2,-1.3439417E0,-2.4120891E-2,-8.5067517E-1,-1.0647521E0,5.6034726E-1,9.6048295E-1,-3.718118E-2,1.3204001E-1,1.0877547E-1,4.173481E-1,-7.221726E-2,-5.5665243E-2,-2.1403484E-2,-4.110045E-2,-2.6674945E-2,2.3772444E-3,-1.0813324E0,-2.243873E-2,1.7369527E-2,-3.4581926E-2,3.3865564E-2,1.0816134E-2,-5.580339E-3,1.1251553E-2,1.5124996E-3,1.4165307E-2,2.0108622E-2,9.044105E-3,5.263202E-3,-9.255241E-3,-3.333258E-2,-2.6920673E-2],"categories":[],"categories_nodes":[],"categories_segments":[],"categories_sizes":[],"default_left":[0,0,0,0,0,0,0,0,0,0,0,0,0,0,0,0,0,0,0,0,0,0,0,0,0,0,0,0,0,0,0,0,0,0,0,0,0,0,0,0,0,0,0,0,0,0,0,0,0,0,0,0,0],"id":20,"left_children":[1,3,5,7,9,11,-1,13,15,17,19,21,23,25,27,29,31,-1,-1,-1,-1,33,-1,35,37,39,41,-1,43,45,47,49,-1,-1,-1,-1,-1,51,-1,-1,-1,-1,-1,-1,-1,-1,-1,-1,-1,-1,-1,-1,-1],"loss_changes":[5.7960095E2,7.350055E1,3.211621E1,4.3543762E1,5.817684E0,3.7582703E0,0E0,2.9416153E1,1.3934984E1,2.2247562E0,1.4660721E0,1.1210175E0,1.7597961E0,1.7787537E1,1.4954648E1,5.042858E0,1.2578948E1,0E0,0E0,0E0,0E0,1.9500732E-1,0E0,3.0050926E0,4.1836548E-1,1.4928131E1,1.5025589E1,0E0,2.6714926E0,4.2188263E0,1.9300871E0,7.3920697E-1,0E0,0E0,0E0,0E0,0E0,2.0593262E-1,0E0,0E0,0E0,0E0,0E0,0E0,0E0,0E0,0E0,0E0,0E0,0E0,0E0,0E0,0E0],"parents":[2147483647,0,0,1,1,2,2,3,3,4,4,5,5,7,7,8,8,9,9,10,10,11,11,12,12,13,13,14,14,15,15,16,16,21,21,23,23,24,24,25,25,26,26,28,28,29,29,30,30,31,31,37,37],"right_children":[2,4,6,8,10,12,-1,14,16,18,20,22,24,26,28,30,32,-1,-1,-1,-1,34,-1,36,38,40,42,-1,44,46,48,50,-1,-1,-1,-1,-1,52,-1,-1,-1,-1,-1,-1,-1,-1,-1,-1,-1,-1,-1,-1,-1],"split_conditions":[1E0,7.8849636E-2,7.0921984E-3,2E0,-5.6445777E-2,-2.0499585E-2,1.7529642E-2,6.797106E-3,1E0,2.3567218E-2,1.2409422E-3,1.3342228E-3,2.0920502E-3,3.236246E-3,6.289042E-3,3.19512E-2,1E0,-1.4773526E-2,7.9506105E-3,-2.3034804E-2,-3.927995E-2,7.628215E-3,-2.4120891E-2,6.214268E-2,-1.7081069E-2,6.4655175E-3,2.7832087E-2,-3.718118E-2,-1.17431125E-2,1E0,2.4362613E-2,1E0,-5.5665243E-2,-2.1403484E-2,-4.110045E-2,-2.6674945E-2,2.3772444E-3,-5.7638362E-2,-2.243873E-2,1.7369527E-2,-3.4581926E-2,3.3865564E-2,1.0816134E-2,-5.580339E-3,1.1251553E-2,1.5124996E-3,1.4165307E-2,2.0108622E-2,9.044105E-3,5.263202E-3,-9.255241E-3,-3.333258E-2,-2.6920673E-2],"split_indices":[489,1356,170,507,1032,1360,0,642,1796,820,1695,371,324,112,466,1685,498,0,0,0,0,1461,0,1306,1298,316,1085,0,1563,1807,901,496,0,0,0,0,0,1290,0,0,0,0,0,0,0,0,0,0,0,0,0,0,0],"split_type":[0,0,0,0,0,0,0,0,0,0,0,0,0,0,0,0,0,0,0,0,0,0,0,0,0,0,0,0,0,0,0,0,0,0,0,0,0,0,0,0,0,0,0,0,0,0,0,0,0,0,0,0,0],"sum_hessian":[1.3815293E3,9.762028E2,4.0532654E2,9.2641437E2,4.978845E1,3.938512E2,1.1475335E1,6.3955725E2,2.868571E2,1.6819565E1,3.296888E1,8.023574E1,3.1361548E2,5.974504E2,4.210687E1,2.7079663E2,1.6060465E1,1.2046796E1,4.7727695E0,1.987601E1,1.3092871E1,7.031996E1,9.915783E0,8.099108E1,2.3262439E2,4.4567105E2,1.5177936E2,9.445056E0,3.266181E1,1.990517E2,7.174493E1,1.0706977E1,5.3534884E0,3.918874E0,6.6401085E1,7.781415E1,3.1769383E0,2.1876155E2,1.386283E1,4.4152954E2,4.1414933E0,1.17829865E2,3.394949E1,1.4248318E1,1.8413494E1,1.7249016E2,2.6561539E1,2.1038176E1,5.070675E1,5.3534884E0,5.3534884E0,1.8396982E2,3.479174E1],"tree_param":{"num_deleted":"0","num_feature":"1814","num_nodes":"53","size_leaf_vector":"1"}},{"base_weights":[-1.4086658E-2,4.1511562E-1,-9.508684E-1,4.6272627E-1,-2.9793618E-2,-1.0309952E0,2.0321207E-2,6.0404867E-1,1.3236186E-1,-1.0448391E0,9.444671E-3,6.536693E-1,-2.9253998E-1,2.0896116E-1,-5.127463E-1,-1.2938828E0,-9.760944E-1,9.695152E-1,5.6839085E-1,-3.6290284E-2,1.177297E-1,2.6702258E-1,-4.56703E-1,-4.4391304E-3,-1.6531717E-2,-4.100843E-2,-1.1920811E-3,-7.917222E-1,-1.0161933E0,3.2807298E-2,4.1361707E-3,-3.5070177E-2,1.748055E-2,-6.8425024E-3,1.0639837E-2,1.04424255E-2,-7.756356E-4,-4.237823E-2,6.2347883E-3,-9.9909995E-3,-2.43238E-2,-1.2470578E-2,-3.0658035E-2],"categories":[],"categories_nodes":[],"categories_segments":[],"categories_sizes":[],"default_left":[0,0,0,0,0,0,0,0,0,0,0,0,0,0,0,0,0,0,0,0,0,0,0,0,0,0,0,0,0,0,0,0,0,0,0,0,0,0,0,0,0,0,0],"id":21,"left_children":[1,3,5,7,-1,9,-1,11,13,15,-1,17,19,21,23,25,27,29,31,-1,33,35,37,-1,-1,-1,-1,39,41,-1,-1,-1,-1,-1,-1,-1,-1,-1,-1,-1,-1,-1,-1],"loss_changes":[5.402618E2,6.224507E1,5.57807E1,4.156894E1,0E0,7.833496E0,0E0,2.797551E1,1.3377718E1,5.5667725E0,0E0,1.5396378E1,1.272552E1,9.427246E0,3.2083797E-1,7.571869E0,1.5368347E0,1.2690079E1,1.2319138E1,0E0,2.0486832E0,5.281144E0,1.2797527E1,0E0,0E0,0E0,0E0,2.6447678E-1,4.5983887E-1,0E0,0E0,0E0,0E0,0E0,0E0,0E0,0E0,0E0,0E0,0E0,0E0,0E0,0E0],"parents":[2147483647,0,0,1,1,2,2,3,3,5,5,7,7,8,8,9,9,11,11,12,12,13,13,14,14,15,15,16,16,17,17,18,18,20,20,21,21,22,22,27,27,28,28],"right_children":[2,4,6,8,-1,10,-1,12,14,16,-1,18,20,22,24,26,28,30,32,-1,34,36,38,-1,-1,-1,-1,40,42,-1,-1,-1,-1,-1,-1,-1,-1,-1,-1,-1,-1,-1,-1],"split_conditions":[3.0560326E-2,1E0,2.0661156E-3,2E0,-2.9793618E-2,9.090909E-3,2.0321207E-2,6.797106E-3,1E0,6.134969E-3,9.444671E-3,-1.1507875E-1,-4.2375863E-2,1E0,-5.9560444E-2,3.267974E-3,6.321555E-2,-7.632012E-2,-1.769152E-1,-3.6290284E-2,-4.6053883E-2,1E0,1E0,-4.4391304E-3,-1.6531717E-2,-4.100843E-2,-1.1920811E-3,1.2407114E-2,-1.2547623E-1,3.2807298E-2,4.1361707E-3,-3.5070177E-2,1.748055E-2,-6.8425024E-3,1.0639837E-2,1.04424255E-2,-7.756356E-4,-4.237823E-2,6.2347883E-3,-9.9909995E-3,-2.43238E-2,-1.2470578E-2,-3.0658035E-2],"split_indices":[1223,489,280,507,0,104,0,642,494,399,0,766,1404,498,1501,61,1432,1112,986,0,1017,500,496,0,0,0,0,997,1273,0,0,0,0,0,0,0,0,0,0,0,0,0,0],"split_type":[0,0,0,0,0,0,0,0,0,0,0,0,0,0,0,0,0,0,0,0,0,0,0,0,0,0,0,0,0,0,0,0,0,0,0,0,0,0,0,0,0,0,0],"sum_hessian":[1.3417227E3,9.205253E2,4.2119727E2,8.910708E2,2.9454536E1,4.0179166E2,1.9405611E1,6.235163E2,2.6755453E2,3.9792203E2,3.8696163E0,5.910749E2,3.2441414E1,2.3976164E2,2.77929E1,8.222418E1,3.1569785E2,1.2345729E2,4.6761758E2,9.424639E0,2.3016773E1,2.210774E2,1.8684238E1,3.1036916E0,2.4689207E1,7.761263E1,4.611552E0,6.0101032E1,2.5559682E2,1.07157036E2,1.630025E1,3.1566708E0,4.644609E2,9.373312E0,1.3643461E1,1.7300664E2,4.807075E1,7.2006297E0,1.1483608E1,3.1361036E0,5.6964928E1,3.1156862E0,2.5248114E2],"tree_param":{"num_deleted":"0","num_feature":"1814","num_nodes":"43","size_leaf_vector":"1"}},{"base_weights":[7.8380585E-2,4.3792984E-1,-9.024399E-1,5.1143837E-1,-3.0445245E-1,-9.937138E-1,2.0226551E-2,6.4994186E-1,1.5363121E-1,-7.748535E-1,6.576994E-3,-8.8994783E-1,-1.0780783E0,6.7026776E-1,-3.1294193E-2,2.1426605E-1,-7.151011E-1,-2.5480503E-2,-1.3154059E-2,6.403184E-2,-3.581308E-1,-9.0758526E-1,-4.1251224E-3,-3.703856E-2,-1.0052415E0,5.6576395E-1,1.0025399E0,1.6616727E-1,6.125703E-1,-5.3186886E-2,-7.994219E-2,8.886958E-3,9.357589E-3,-1.5427404E-2,-3.644916E-3,-2.2596627E-2,-2.8819242E-2,-2.1969886E-2,-3.142949E-2,1.7395684E-2,-3.828433E-2,3.311181E-2,1.34019E-2,3.5016218E-3,1.2253395E-2,2.8394887E-3,2.0486992E-2,4.866193E-3,-9.285253E-3,-3.0520265E-3,1.0813229E-3],"categories":[],"categories_nodes":[],"categories_segments":[],"categories_sizes":[],"default_left":[0,0,0,0,0,0,0,0,0,0,0,0,0,0,0,0,0,0,0,0,0,0,0,0,0,0,0,0,0,0,0,0,0,0,0,0,0,0,0,0,0,0,0,0,0,0,0,0,0,0,0],"id":22,"left_children":[1,3,5,7,9,11,-1,13,15,17,19,21,23,25,-1,27,29,-1,-1,31,33,35,-1,-1,37,39,41,43,45,-1,47,-1,49,-1,-1,-1,-1,-1,-1,-1,-1,-1,-1,-1,-1,-1,-1,-1,-1,-1,-1],"loss_changes":[4.8697168E2,5.529016E1,5.3979492E1,4.547647E1,1.3414629E1,2.109558E0,0E0,2.3505188E1,1.3741213E1,5.419693E-1,1.1998047E0,2.037613E0,9.096832E-1,2.2192627E1,0E0,4.532449E0,1.132065E1,0E0,0E0,6.239801E-1,2.2550029E-1,5.788727E-1,0E0,0E0,7.850189E-1,1.3742249E1,8.254059E0,2.554412E0,8.711786E-1,0E0,7.009851E-1,0E0,1.2519467E-1,0E0,0E0,0E0,0E0,0E0,0E0,0E0,0E0,0E0,0E0,0E0,0E0,0E0,0E0,0E0,0E0,0E0,0E0],"parents":[2147483647,0,0,1,1,2,2,3,3,4,4,5,5,7,7,8,8,9,9,10,10,11,11,12,12,13,13,15,15,16,16,19,19,20,20,21,21,24,24,25,25,26,26,27,27,28,28,30,30,32,32],"right_children":[2,4,6,8,10,12,-1,14,16,18,20,22,24,26,-1,28,30,-1,-1,32,34,36,-1,-1,38,40,42,44,46,-1,48,-1,50,-1,-1,-1,-1,-1,-1,-1,-1,-1,-1,-1,-1,-1,-1,-1,-1,-1,-1],"split_conditions":[1E0,3.0509576E-2,2.0661156E-3,2E0,1.4553058E-3,2.4752475E-3,2.0226551E-2,1.5444015E-2,1E0,4.4984257E-4,6.7264573E-3,3.0838951E-2,3.8404297E-2,3.236246E-3,-3.1294193E-2,5.0466023E-2,1E0,-2.5480503E-2,-1.3154059E-2,-1.2138125E-2,-5.8946606E-2,-3.901989E-2,-4.1251224E-3,-3.703856E-2,-5.975115E-2,6.535948E-3,-3.9423753E-2,1E0,-9.862766E-2,-5.3186886E-2,1E0,8.886958E-3,7.766315E-3,-1.5427404E-2,-3.644916E-3,-2.2596627E-2,-2.8819242E-2,-2.1969886E-2,-3.142949E-2,1.7395684E-2,-3.828433E-2,3.311181E-2,1.34019E-2,3.5016218E-3,1.2253395E-2,2.8394887E-3,2.0486992E-2,4.866193E-3,-9.285253E-3,-3.0520265E-3,1.0813229E-3],"split_indices":[489,1048,280,507,1361,372,0,401,1796,318,241,924,632,112,0,1747,499,0,0,843,1705,1268,0,0,1326,333,794,1807,1447,0,501,0,1460,0,0,0,0,0,0,0,0,0,0,0,0,0,0,0,0,0,0],"split_type":[0,0,0,0,0,0,0,0,0,0,0,0,0,0,0,0,0,0,0,0,0,0,0,0,0,0,0,0,0,0,0,0,0,0,0,0,0,0,0,0,0,0,0,0,0,0,0,0,0,0,0],"sum_hessian":[1.3787588E3,1.0093169E3,3.6944196E2,9.186645E2,9.065241E1,3.4957455E2,1.9867397E1,6.617077E2,2.569568E2,3.5488434E1,5.516398E1,1.6194078E2,1.8763377E2,6.544549E2,7.252791E0,2.4089632E2,1.6060465E1,2.7805601E1,7.6828327E0,4.8368584E1,6.7953944E0,1.5803033E2,3.9104512E0,5.4516533E1,1.3311725E2,4.9992487E2,1.5453003E2,2.1620485E2,2.4691475E1,5.3534884E0,1.0706977E1,8.376345E0,3.9992237E1,3.3874135E0,3.4079807E0,4.430982E1,1.1372051E2,2.0360237E1,1.1275701E2,4.9680902E2,3.115836E0,1.2989618E2,2.4633858E1,1.8078946E2,3.5415386E1,3.2324975E0,2.1458977E1,5.3534884E0,5.3534884E0,7.2014637E0,3.2790775E1],"tree_param":{"num_deleted":"0","num_feature":"1814","num_nodes":"51","size_leaf_vector":"1"}},{"base_weights":[-9.279253E-3,3.936231E-1,-1.0030249E0,4.4554994E-1,-9.4785553E-1,-1.3762444E-1,-1.0246943E0,5.8885145E-1,1.2514667E-1,-4.5991663E-2,-2.5177391E-2,-1.1585616E-2,3.416515E-3,-1.2859218E0,-9.5189214E-1,6.3017434E-1,-2.8865533E-2,1.9038199E-1,-6.4882153E-1,-3.929406E-2,-1.962863E-2,-1.0171733E0,-7.980351E-1,6.8167937E-1,-2.3437214E-1,2.4155407E-1,-3.53011E-1,-2.0886387E-1,-5.1842418E-2,-1.0533969E0,-2.3609942E-2,4.6525514E-3,-8.390381E-1,-2.7449909E-3,2.1415964E-2,-3.453298E-2,4.208664E-3,2.5356945E-4,9.351709E-3,-1.6165424E-2,2.7327419E-3,-2.3376415E-3,-1.2517962E-2,-1.8643405E-2,-3.2170236E-2,-2.1768054E-2,-2.8773686E-2],"categories":[],"categories_nodes":[],"categories_segments":[],"categories_sizes":[],"default_left":[0,0,0,0,0,0,0,0,0,0,0,0,0,0,0,0,0,0,0,0,0,0,0,0,0,0,0,0,0,0,0,0,0,0,0,0,0,0,0,0,0,0,0,0,0,0,0],"id":23,"left_children":[1,3,5,7,9,11,13,15,17,-1,-1,-1,-1,19,21,23,-1,25,27,-1,-1,29,31,33,35,37,39,41,-1,43,-1,-1,45,-1,-1,-1,-1,-1,-1,-1,-1,-1,-1,-1,-1,-1,-1],"loss_changes":[5.370203E2,6.69017E1,7.1148376E0,4.214325E1,9.9417114E-1,7.070797E-1,5.9517517E0,4.1309006E1,1.4534413E1,0E0,0E0,0E0,0E0,3.404541E-1,2.1907043E0,2.773079E1,0E0,7.42638E0,1.0281846E1,0E0,0E0,8.905487E-1,3.7917137E0,1.4613953E1,1.2374096E1,3.953682E0,1.9578776E0,4.3304247E-1,0E0,7.6756287E-1,0E0,0E0,5.298233E-1,0E0,0E0,0E0,0E0,0E0,0E0,0E0,0E0,0E0,0E0,0E0,0E0,0E0,0E0],"parents":[2147483647,0,0,1,1,2,2,3,3,4,4,5,5,6,6,7,7,8,8,13,13,14,14,15,15,17,17,18,18,21,21,22,22,23,23,24,24,25,25,26,26,27,27,29,29,32,32],"right_children":[2,4,6,8,10,12,14,16,18,-1,-1,-1,-1,20,22,24,-1,26,28,-1,-1,30,32,34,36,38,40,42,-1,44,-1,-1,46,-1,-1,-1,-1,-1,-1,-1,-1,-1,-1,-1,-1,-1,-1],"split_conditions":[3.0560326E-2,1E0,-2.7186044E-2,2E0,1E0,1.2458622E-1,6.134969E-3,1E0,1E0,-4.5991663E-2,-2.5177391E-2,-1.1585616E-2,3.416515E-3,1.8300802E-2,3.164557E-3,6.797106E-3,-2.8865533E-2,1E0,1E0,-3.929406E-2,-1.962863E-2,3.6084693E-2,5.955101E0,-4.8019256E-2,-1.9387444E-2,-1.1755801E-1,1.2881064E-3,1.0989011E-2,-5.1842418E-2,-1.2547623E-1,-2.3609942E-2,4.6525514E-3,-4.136352E-2,-2.7449909E-3,2.1415964E-2,-3.453298E-2,4.208664E-3,2.5356945E-4,9.351709E-3,-1.6165424E-2,2.7327419E-3,-2.3376415E-3,-1.2517962E-2,-1.8643405E-2,-3.2170236E-2,-2.1768054E-2,-2.8773686E-2],"split_indices":[1223,490,1253,507,489,1611,399,491,1796,0,0,0,0,1350,110,642,0,494,498,0,0,1550,23,898,1397,1674,327,0,0,1273,0,0,1740,0,0,0,0,0,0,0,0,0,0,0,0,0,0],"split_type":[0,0,0,0,0,0,0,0,0,0,0,0,0,0,0,0,0,0,0,0,0,0,0,0,0,0,0,0,0,0,0,0,0,0,0,0,0,0,0,0,0,0,0,0,0,0,0],"sum_hessian":[1.3392822E3,9.533584E2,3.8592392E2,9.184734E2,3.488499E1,9.606941E0,3.76317E2,6.3405304E2,2.8442032E2,3.407831E0,3.147716E1,4.562444E0,5.044497E0,7.838698E1,2.9793E2,6.181772E2,1.5875862E1,2.6300638E2,2.1413954E1,7.4496796E1,3.8901834E0,2.0523718E2,9.269281E1,5.836198E2,3.4557396E1,2.4087802E2,2.2128351E1,1.6060465E1,5.3534884E0,1.7423982E2,3.0997358E1,3.7083986E0,8.898441E1,2.3250471E1,5.603693E2,9.424639E0,2.5132755E1,5.599254E1,1.8488548E2,1.5449924E1,6.6784263E0,1.0706977E1,5.3534884E0,8.740902E0,1.6549893E2,4.9380394E1,3.960402E1],"tree_param":{"num_deleted":"0","num_feature":"1814","num_nodes":"47","size_leaf_vector":"1"}},{"base_weights":[5.5237706E-3,3.7715098E-1,-9.007719E-1,4.2857975E-1,-8.4243923E-1,-9.8614997E-1,2.0481858E-2,5.838738E-1,1.0762001E-1,-2.921941E-2,-2.0272873E-2,-9.1973233E-1,-1.1901824E0,6.9153947E-1,-4.2946998E-2,1.6595942E-1,-6.3233256E-1,-9.616224E-1,-2.2089293E-2,-3.6353186E-2,-1.4861446E-2,6.144811E-1,1.0096394E0,1.7456473E-1,-3.143086E-2,2.2105682E-1,-3.598067E-1,-1.1348684E0,-7.578343E-2,-1.0095214E-2,-9.694291E-1,7.965319E-3,2.0054933E-2,6.7778546E-3,3.230773E-2,-7.226567E-3,1.1805201E-2,8.560284E-3,-2.61165E-4,-1.5730634E-2,2.08472E-3,-5.0531935E-2,-1.220153E-2,4.8022754E-3,-8.991445E-3,-2.2559877E-2,-2.9717512E-2],"categories":[],"categories_nodes":[],"categories_segments":[],"categories_sizes":[],"default_left":[0,0,0,0,0,0,0,0,0,0,0,0,0,0,0,0,0,0,0,0,0,0,0,0,0,0,0,0,0,0,0,0,0,0,0,0,0,0,0,0,0,0,0,0,0,0,0],"id":24,"left_children":[1,3,5,7,9,11,-1,13,15,-1,-1,17,19,21,23,25,27,29,-1,-1,-1,31,33,35,-1,37,39,41,43,-1,45,-1,-1,-1,-1,-1,-1,-1,-1,-1,-1,-1,-1,-1,-1,-1,-1],"loss_changes":[4.5903296E2,6.0985413E1,5.4257355E1,4.6197052E1,2.0668411E-1,4.0071106E0,0E0,4.2226074E1,1.3222021E1,0E0,0E0,1.5080261E0,7.356262E-1,1.2460709E1,2.0418974E1,8.261488E0,6.1828623E0,8.036499E-1,0E0,0E0,0E0,7.9685364E0,5.1623154E0,7.0963E0,0E0,3.7877617E0,1.9558415E0,3.9993582E0,6.662964E-1,0E0,3.045044E-1,0E0,0E0,0E0,0E0,0E0,0E0,0E0,0E0,0E0,0E0,0E0,0E0,0E0,0E0,0E0,0E0],"parents":[2147483647,0,0,1,1,2,2,3,3,4,4,5,5,7,7,8,8,11,11,12,12,13,13,14,14,15,15,16,16,17,17,21,21,22,22,23,23,25,25,26,26,27,27,28,28,30,30],"right_children":[2,4,6,8,10,12,-1,14,16,-1,-1,18,20,22,24,26,28,30,-1,-1,-1,32,34,36,-1,38,40,42,44,-1,46,-1,-1,-1,-1,-1,-1,-1,-1,-1,-1,-1,-1,-1,-1,-1,-1],"split_conditions":[1E0,1E0,2.0661156E-3,2E0,3.970352E-2,5.498822E-3,2.0481858E-2,2.7883744E-2,1E0,-2.921941E-2,-2.0272873E-2,6.259781E-3,8.241759E-3,1.1978548E-1,1.1365949E-1,1E0,1E0,-5.3850092E-2,-2.2089293E-2,-3.6353186E-2,-1.4861446E-2,-2.6254037E-2,6.671114E-4,4.7003524E-3,-3.143086E-2,1E0,1.2219959E-3,1.0989011E-2,1E0,-1.0095214E-2,-2.9469557E-2,7.965319E-3,2.0054933E-2,6.7778546E-3,3.230773E-2,-7.226567E-3,1.1805201E-2,8.560284E-3,-2.61165E-4,-1.5730634E-2,2.08472E-3,-5.0531935E-2,-1.220153E-2,4.8022754E-3,-8.991445E-3,-2.2559877E-2,-2.9717512E-2],"split_indices":[490,491,280,507,979,348,0,1408,1796,0,0,67,316,1478,1412,494,499,1183,0,0,0,1588,112,255,0,500,387,0,496,0,648,0,0,0,0,0,0,0,0,0,0,0,0,0,0,0,0],"split_type":[0,0,0,0,0,0,0,0,0,0,0,0,0,0,0,0,0,0,0,0,0,0,0,0,0,0,0,0,0,0,0,0,0,0,0,0,0,0,0,0,0,0,0,0,0,0,0],"sum_hessian":[1.3608992E3,9.655561E2,3.953431E2,9.271095E2,3.844661E1,3.754757E2,1.9867397E1,6.2425104E2,3.0285843E2,1.8781073E1,1.9665535E1,2.8742084E2,8.805487E1,5.3265625E2,9.159478E1,2.814445E2,2.1413954E1,2.3052972E2,5.6891125E1,8.467945E1,3.3754191E0,4.3114496E2,1.0151131E2,7.5973915E1,1.5620863E1,2.5527283E2,2.6171642E1,1.0706977E1,1.0706977E1,3.3874135E0,2.271423E2,5.858388E1,3.7256107E2,8.370659E0,9.314065E1,2.6185589E1,4.9788326E1,1.9927507E2,5.5997757E1,1.8759703E1,7.411939E0,5.3534884E0,5.3534884E0,5.3534884E0,5.3534884E0,2.3380413E1,2.0376189E2],"tree_param":{"num_deleted":"0","num_feature":"1814","num_nodes":"47","size_leaf_vector":"1"}},{"base_weights":[-2.612631E-2,3.7723157E-1,-8.728694E-1,4.2878622E-1,-8.152372E-1,-9.457968E-1,1.9478621E-2,5.7784706E-1,9.7118236E-2,-2.8290126E-2,-1.969412E-2,-8.166192E-1,-1.0352627E0,-1.5101731E-1,6.638193E-1,1.4612506E-1,-6.6211843E-1,-8.285025E-1,-3.6925494E-3,-9.2338836E-1,-3.5818562E-2,1.15031585E-1,-3.0756056E-2,6.8447906E-1,-3.4896728E-2,2.0226534E-1,-3.3640486E-1,-4.925458E-2,-7.386777E-2,-3.128078E-2,-7.951692E-1,-6.706244E-1,-9.564243E-1,-6.7417677E-3,1.26127405E-2,1.8501442E-2,3.0060964E-2,1.2006572E-2,3.6174485E-3,-1.5317336E-2,2.6459484E-3,4.680882E-3,-8.764159E-3,-2.4615033E-2,-1.9697126E-2,-1.0227617E-2,-2.1251034E-2,-1.7070083E-2,-2.9078566E-2],"categories":[],"categories_nodes":[],"categories_segments":[],"categories_sizes":[],"default_left":[0,0,0,0,0,0,0,0,0,0,0,0,0,0,0,0,0,0,0,0,0,0,0,0,0,0,0,0,0,0,0,0,0,0,0,0,0,0,0,0,0,0,0,0,0,0,0,0,0],"id":25,"left_children":[1,3,5,7,9,11,-1,13,15,-1,-1,17,19,21,23,25,27,29,-1,31,-1,33,-1,35,-1,37,39,-1,41,-1,43,45,47,-1,-1,-1,-1,-1,-1,-1,-1,-1,-1,-1,-1,-1,-1,-1,-1],"loss_changes":[4.6987744E2,5.7640335E1,4.9889343E1,4.4138977E1,1.7134476E-1,4.0548096E0,0E0,3.8734543E1,1.045493E1,0E0,0E0,1.3669128E0,3.2785645E0,1.5436761E1,2.1620209E1,7.1743155E0,9.7108345E0,4.2072296E-1,0E0,6.040268E-1,0E0,5.4273744E0,0E0,1.1134399E1,0E0,3.761489E0,2.0946963E0,0E0,6.330366E-1,0E0,7.9193115E-3,1.4688492E-2,9.404755E-2,0E0,0E0,0E0,0E0,0E0,0E0,0E0,0E0,0E0,0E0,0E0,0E0,0E0,0E0,0E0,0E0],"parents":[2147483647,0,0,1,1,2,2,3,3,4,4,5,5,7,7,8,8,11,11,12,12,13,13,14,14,15,15,16,16,17,17,19,19,21,21,23,23,25,25,26,26,28,28,30,30,31,31,32,32],"right_children":[2,4,6,8,10,12,-1,14,16,-1,-1,18,20,22,24,26,28,30,-1,32,-1,34,-1,36,-1,38,40,-1,42,-1,44,46,48,-1,-1,-1,-1,-1,-1,-1,-1,-1,-1,-1,-1,-1,-1,-1,-1],"split_conditions":[1E0,1E0,2.0661156E-3,2E0,8.75113E-2,2.3923444E-3,1.9478621E-2,-2.9705274E-3,1E0,-2.8290126E-2,-1.969412E-2,3.5362586E-2,-4.856488E-2,1.0471204E-2,1.5472881E-2,1E0,1E0,-4.0138293E-2,-3.6925494E-3,2.0920502E-3,-3.5818562E-2,2.2624435E-3,-3.0756056E-2,8.426878E-2,-3.4896728E-2,3E0,6.8610637E-3,-4.925458E-2,1E0,-3.128078E-2,1.610306E-3,-7.6531677E0,3.2967035E-2,-6.7417677E-3,1.26127405E-2,1.8501442E-2,3.0060964E-2,1.2006572E-2,3.6174485E-3,-1.5317336E-2,2.6459484E-3,4.680882E-3,-8.764159E-3,-2.4615033E-2,-1.9697126E-2,-1.0227617E-2,-2.1251034E-2,-1.7070083E-2,-2.9078566E-2],"split_indices":[489,491,280,507,1608,372,0,1231,1796,0,0,924,780,302,1694,494,499,965,0,152,0,125,0,1430,0,507,388,0,496,0,141,1673,19,0,0,0,0,0,0,0,0,0,0,0,0,0,0,0,0],"split_type":[0,0,0,0,0,0,0,0,0,0,0,0,0,0,0,0,0,0,0,0,0,0,0,0,0,0,0,0,0,0,0,0,0,0,0,0,0,0,0,0,0,0,0,0,0,0,0,0,0],"sum_hessian":[1.3737952E3,9.309016E2,4.4289352E2,8.929372E2,3.7964405E1,4.230057E2,1.9887814E1,6.1554974E2,2.7738745E2,1.829887E1,1.9665535E1,1.7723224E2,2.4577345E2,6.486596E1,5.506838E2,2.61327E2,1.6060465E1,1.740553E2,3.1769383E0,1.4814885E2,9.76246E1,5.0396675E1,1.4469286E1,5.451448E2,5.538994E0,2.3461176E2,2.6715246E1,5.3534884E0,1.0706977E1,1.9361725E1,1.5469357E2,1.9586773E1,1.2856209E2,2.3981178E1,2.6415497E1,4.5169693E2,9.344787E1,6.739235E1,1.672194E2,1.8800688E1,7.9145594E0,5.3534884E0,5.3534884E0,1.2662928E2,2.8064293E1,3.0424395E0,1.6544334E1,5.584381E0,1.229777E2],"tree_param":{"num_deleted":"0","num_feature":"1814","num_nodes":"49","size_leaf_vector":"1"}},{"base_weights":[-2.9251456E-2,3.592031E-1,-9.0487796E-1,4.078356E-1,-8.6069167E-1,-8.4028643E-1,-1.1063547E0,5.526467E-1,1.13218114E-1,-1.9213896E-2,-3.2248586E-2,-8.735801E-1,-6.0796624E-1,-3.478342E-2,-2.318281E-2,5.827909E-1,-3.808894E-2,1.6983461E-1,-8.342005E-1,-8.064598E-1,-9.3789E-1,-2.1384995E-2,5.690271E-3,6.619258E-1,-3.735776E-2,2.2792925E-1,-3.3509755E-1,-1.0414947E-2,-4.8009515E-2,-1.6514162E-2,-2.4613213E-2,-2.5280721E-2,-3.0158013E-2,1.7270468E-2,2.715101E-2,6.676785E-3,-3.245083E-2,-1.8551687E-4,9.07465E-3,-1.498113E-2,2.5984587E-3],"categories":[],"categories_nodes":[],"categories_segments":[],"categories_sizes":[],"default_left":[0,0,0,0,0,0,0,0,0,0,0,0,0,0,0,0,0,0,0,0,0,0,0,0,0,0,0,0,0,0,0,0,0,0,0,0,0,0,0,0,0],"id":26,"left_children":[1,3,5,7,9,11,13,15,17,-1,-1,19,21,-1,-1,23,-1,25,27,29,31,-1,-1,33,35,37,39,-1,-1,-1,-1,-1,-1,-1,-1,-1,-1,-1,-1,-1,-1],"loss_changes":[4.6181772E2,5.6150406E1,4.499939E0,3.855536E1,1.0281696E0,1.9447479E0,8.420105E-1,3.4062042E1,1.6209394E1,0E0,0E0,4.4223022E-1,3.7664127E0,0E0,0E0,2.9343872E1,0E0,8.39222E0,5.81013E0,6.0180664E-2,2.3124695E-2,0E0,0E0,1.0588593E1,1.884945E1,4.450055E0,2.0977128E0,0E0,0E0,0E0,0E0,0E0,0E0,0E0,0E0,0E0,0E0,0E0,0E0,0E0,0E0],"parents":[2147483647,0,0,1,1,2,2,3,3,4,4,5,5,6,6,7,7,8,8,11,11,12,12,15,15,17,17,18,18,19,19,20,20,23,23,24,24,25,25,26,26],"right_children":[2,4,6,8,10,12,14,16,18,-1,-1,20,22,-1,-1,24,-1,26,28,30,32,-1,-1,34,36,38,40,-1,-1,-1,-1,-1,-1,-1,-1,-1,-1,-1,-1,-1,-1],"split_conditions":[1E0,1E0,6.746073E-2,2E0,-3.4462895E-2,1.610306E-3,1.4760849E-2,1E0,1E0,-1.9213896E-2,-3.2248586E-2,4.3271627E-2,-1.3016403E-2,-3.478342E-2,-2.318281E-2,3.533569E-3,-3.808894E-2,1E0,1E0,-2.187628E-3,-8.598703E-2,-2.1384995E-2,5.690271E-3,6.905014E-2,1.4725426E-1,-2.4807414E-2,6.8610637E-3,-1.0414947E-2,-4.8009515E-2,-1.6514162E-2,-2.4613213E-2,-2.5280721E-2,-3.0158013E-2,1.7270468E-2,2.715101E-2,6.676785E-3,-3.245083E-2,-1.8551687E-4,9.07465E-3,-1.498113E-2,2.5984587E-3],"split_indices":[489,491,857,507,662,141,613,490,1796,0,0,844,1175,0,0,295,0,494,498,1238,1353,0,0,1777,1170,1694,388,0,0,0,0,0,0,0,0,0,0,0,0,0,0],"split_type":[0,0,0,0,0,0,0,0,0,0,0,0,0,0,0,0,0,0,0,0,0,0,0,0,0,0,0,0,0,0,0,0,0,0,0,0,0,0,0,0,0],"sum_hessian":[1.3557684E3,9.395467E2,4.162217E2,9.041667E2,3.5379963E1,3.1909396E2,9.712776E1,6.056167E2,2.9855002E2,1.9414225E1,1.5965737E1,2.7668253E2,4.241144E1,8.165629E1,1.5471473E1,5.964307E2,9.18599E0,2.8248953E2,1.6060465E1,1.420084E2,1.3467412E2,3.757742E1,4.8340216E0,5.288755E2,6.755523E1,2.5383348E2,2.8656052E1,1.0706977E1,5.3534884E0,9.444906E0,1.3256349E2,6.141128E1,7.326283E1,3.92871E2,1.360045E2,5.4722607E1,1.283262E1,6.153442E1,1.9229907E2,2.0490183E1,8.16587E0],"tree_param":{"num_deleted":"0","num_feature":"1814","num_nodes":"41","size_leaf_vector":"1"}},{"base_weights":[-2.310807E-3,3.27021E-1,-8.0431664E-1,-8.40739E-1,3.9083147E-1,-8.8615227E-1,2.1526953E-2,-1.7108213E-2,-3.133504E-2,5.223353E-1,1.0390063E-1,-8.4901565E-1,-3.692939E-2,5.8784205E-1,-1.5128058E-1,1.6518499E-1,-8.12599E-1,-8.555068E-1,-4.5993677E-3,6.112168E-1,-2.5564902E-2,1.9238013E-1,-1.0629551E0,1.21293165E-1,5.8233815E-1,-1.0344167E0,-8.279345E-3,-8.73081E-1,-6.049579E-1,1.5398719E-2,2.7399885E-2,1.271991E-2,-5.5176313E-3,-3.9696857E-2,-2.2172587E-2,-2.1261359E-3,5.317216E-3,7.656435E-3,1.8557742E-2,-4.6795916E-2,-1.0384759E-2,-3.952772E-2,-2.581071E-2,-8.3991755E-3,-1.916205E-2],"categories":[],"categories_nodes":[],"categories_segments":[],"categories_sizes":[],"default_left":[0,0,0,0,0,0,0,0,0,0,0,0,0,0,0,0,0,0,0,0,0,0,0,0,0,0,0,0,0,0,0,0,0,0,0,0,0,0,0,0,0,0,0,0,0],"id":27,"left_children":[1,3,5,7,9,11,-1,-1,-1,13,15,17,-1,19,21,23,25,27,-1,29,-1,31,33,35,37,39,-1,41,43,-1,-1,-1,-1,-1,-1,-1,-1,-1,-1,-1,-1,-1,-1,-1,-1],"loss_changes":[3.351327E2,6.735389E1,4.6637146E1,1.9902306E0,3.2152756E1,3.4490967E0,0E0,0E0,0E0,2.5905518E1,1.5271379E1,1.3141937E0,0E0,1.8475403E1,1.6699419E1,4.5697856E0,1.745266E0,8.6709595E-1,0E0,1.5077209E1,0E0,3.4842553E0,2.4986458E-1,2.4915142E0,1.2514591E-1,3.6937895E0,0E0,5.2841187E-1,8.490944E-2,0E0,0E0,0E0,0E0,0E0,0E0,0E0,0E0,0E0,0E0,0E0,0E0,0E0,0E0,0E0,0E0],"parents":[2147483647,0,0,1,1,2,2,3,3,4,4,5,5,9,9,10,10,11,11,13,13,14,14,15,15,16,16,17,17,19,19,21,21,22,22,23,23,24,24,25,25,27,27,28,28],"right_children":[2,4,6,8,10,12,-1,-1,-1,14,16,18,-1,20,22,24,26,28,-1,30,-1,32,34,36,38,40,-1,42,44,-1,-1,-1,-1,-1,-1,-1,-1,-1,-1,-1,-1,-1,-1,-1,-1],"split_conditions":[1E0,-4.4760555E-2,8.510638E-3,1.8964369E-2,2E0,5.4945056E-3,2.1526953E-2,-1.7108213E-2,-3.133504E-2,4.2462847E-3,1E0,1.4760761E-1,-3.692939E-2,1E0,6.302521E-3,1.0373445E-3,1E0,1.4249155E-2,-4.5993677E-3,3.236246E-3,-2.5564902E-2,6.18708E-3,1.0729614E-3,-6.237809E-2,3.5039403E-2,3.6764706E-3,-8.279345E-3,2E0,4.02791E-2,1.5398719E-2,2.7399885E-2,1.271991E-2,-5.5176313E-3,-3.9696857E-2,-2.2172587E-2,-2.1261359E-3,5.317216E-3,7.656435E-3,1.8557742E-2,-4.6795916E-2,-1.0384759E-2,-3.952772E-2,-2.581071E-2,-8.3991755E-3,-1.916205E-2],"split_indices":[490,1122,107,852,507,114,0,0,0,141,1796,1141,0,491,414,397,496,1057,0,112,0,1001,116,1542,1672,1,0,507,1158,0,0,0,0,0,0,0,0,0,0,0,0,0,0,0,0],"split_type":[0,0,0,0,0,0,0,0,0,0,0,0,0,0,0,0,0,0,0,0,0,0,0,0,0,0,0,0,0,0,0,0,0,0,0,0,0,0,0,0,0,0,0,0,0],"sum_hessian":[1.2668405E3,8.984837E2,3.683568E2,4.592163E1,8.525621E2,3.4995642E2,1.8400372E1,2.1363453E1,2.4558176E1,5.8406E2,2.685021E2,3.190573E2,3.089912E1,5.324121E2,5.1647858E1,2.5244164E2,1.6060465E1,3.1588037E2,3.1769383E0,5.244742E2,7.937931E0,3.8081726E1,1.3566133E1,2.2957687E2,2.286475E1,1.0706977E1,5.3534884E0,2.9285403E2,2.3026348E1,3.981256E2,1.2634858E2,2.3494125E1,1.4587599E1,5.8107214E0,7.755411E0,5.1707745E1,1.7786913E2,3.0832744E0,1.9781477E1,5.3534884E0,5.3534884E0,5.295807E0,2.8755823E2,3.0424395E0,1.998391E1],"tree_param":{"num_deleted":"0","num_feature":"1814","num_nodes":"45","size_leaf_vector":"1"}},{"base_weights":[-2.8791511E-2,3.878389E-1,-7.8645736E-1,5.571898E-1,4.423089E-2,-8.4069407E-1,2.4642062E-1,6.125394E-1,-7.475488E-2,1.1423782E-1,-2.3637567E-2,-1.7121916E-1,-8.741826E-1,5.747562E-1,-4.5670548E-1,6.3719857E-1,-2.4883762E-2,2.0803362E-1,-3.1125057E-2,1.6482304E-1,-5.918131E-1,9.3325125E-3,-3.755174E-1,-7.7179015E-1,-1.001668E0,3.0047472E-3,2.0357875E-2,-2.1219391E-2,-3.6451942E-3,5.6098276E-1,9.0740454E-1,2.714204E-1,-1.0355217E-2,2.127204E-1,-1.4887289E-2,-4.5613002E-2,-3.7289813E-2,-1.2531077E-2,-5.8806203E-3,-6.5533924E-1,-8.6838615E-1,-2.397029E-2,-1.0725986E0,1.8074796E-2,1.360327E-3,2.2597143E-3,2.9044712E-2,6.731399E-3,1.4807828E-2,1.2822419E-2,3.8868508E-3,6.008745E-3,-8.070058E-3,-1.9931396E-2,-8.633935E-3,-1.8754853E-2,-2.6641272E-2,-3.281426E-2,-1.3571567E-2],"categories":[],"categories_nodes":[],"categories_segments":[],"categories_sizes":[],"default_left":[0,0,0,0,0,0,0,0,0,0,0,0,0,0,0,0,0,0,0,0,0,0,0,0,0,0,0,0,0,0,0,0,0,0,0,0,0,0,0,0,0,0,0,0,0,0,0,0,0,0,0,0,0,0,0,0,0,0,0],"id":28,"left_children":[1,3,5,7,9,11,13,15,17,19,-1,21,23,25,27,29,-1,31,-1,33,35,-1,37,39,41,-1,-1,-1,-1,43,45,47,-1,49,-1,-1,51,-1,-1,53,55,-1,57,-1,-1,-1,-1,-1,-1,-1,-1,-1,-1,-1,-1,-1,-1,-1,-1],"loss_changes":[4.0170572E2,4.7756294E1,2.5499146E1,1.928157E1,1.5945808E1,9.472504E0,5.6410995E0,1.8512665E1,1.25161085E1,9.095275E0,0E0,2.2539606E0,4.5592346E0,7.3653984E-1,5.8385456E-1,9.743134E0,0E0,1.3474662E0,0E0,7.5738506E0,8.728446E0,0E0,3.6919117E-2,2.0282135E0,1.7102203E0,0E0,0E0,0E0,0E0,8.34005E0,5.381851E0,2.3036194E-1,0E0,3.883685E0,0E0,0E0,6.9835347E-1,0E0,0E0,1.7020416E-1,3.352356E-2,0E0,1.2070312E0,0E0,0E0,0E0,0E0,0E0,0E0,0E0,0E0,0E0,0E0,0E0,0E0,0E0,0E0,0E0,0E0],"parents":[2147483647,0,0,1,1,2,2,3,3,4,4,5,5,6,6,7,7,8,8,9,9,11,11,12,12,13,13,14,14,15,15,17,17,19,19,20,20,22,22,23,23,24,24,29,29,30,30,31,31,33,33,36,36,39,39,40,40,42,42],"right_children":[2,4,6,8,10,12,14,16,18,20,-1,22,24,26,28,30,-1,32,-1,34,36,-1,38,40,42,-1,-1,-1,-1,44,46,48,-1,50,-1,-1,52,-1,-1,54,56,-1,58,-1,-1,-1,-1,-1,-1,-1,-1,-1,-1,-1,-1,-1,-1,-1,-1],"split_conditions":[1.1623322E-2,2E0,5E0,8.471005E-2,1E0,2.73297E-2,-1.7976671E-2,1E0,4.4044923E-2,1E0,-2.3637567E-2,4.4984257E-4,-2.097556E-2,5.4248217E-2,-8.279491E-3,5.8139537E-2,-2.4883762E-2,4E-3,-3.1125057E-2,1E0,1E0,9.3325125E-3,3.2797992E-2,2.7131246E-2,-7.482711E-2,3.0047472E-3,2.0357875E-2,-2.1219391E-2,-3.6451942E-3,1.3093866E-2,7.906429E-2,7.414578E-2,-1.0355217E-2,3E0,-1.4887289E-2,-4.5613002E-2,1E0,-1.2531077E-2,-5.8806203E-3,2.41901E-2,-1.066004E-2,-2.397029E-2,6.415959E-2,1.8074796E-2,1.360327E-3,2.2597143E-3,2.9044712E-2,6.731399E-3,1.4807828E-2,1.2822419E-2,3.8868508E-3,6.008745E-3,-8.070058E-3,-1.9931396E-2,-8.633935E-3,-1.8754853E-2,-2.6641272E-2,-3.281426E-2,-1.3571567E-2],"split_indices":[1744,507,52,488,490,979,1583,491,1769,1796,0,455,1338,1214,1290,37,0,118,0,494,499,0,1754,863,1759,0,0,0,0,1398,488,1701,0,507,0,0,496,0,0,622,566,0,909,0,0,0,0,0,0,0,0,0,0,0,0,0,0,0,0],"split_type":[0,0,0,0,0,0,0,0,0,0,0,0,0,0,0,0,0,0,0,0,0,0,0,0,0,0,0,0,0,0,0,0,0,0,0,0,0,0,0,0,0,0,0,0,0,0,0,0,0,0,0,0,0,0,0,0,0,0,0],"sum_hessian":[1.2705968E3,8.2011475E2,4.504821E2,5.489414E2,2.711733E2,4.2818408E2,2.2297993E1,5.0476196E2,4.4179436E1,2.5092616E2,2.0247147E1,2.0689482E1,4.074946E2,1.5324534E1,6.973458E0,4.9682404E2,7.937931E0,3.4754795E1,9.424639E0,2.348657E2,1.6060465E1,6.0006294E0,1.4688852E1,2.2989987E2,1.7759474E2,3.1036916E0,1.2220842E1,3.3550017E0,3.6184561E0,3.8991772E2,1.0690631E2,3.163896E1,3.115836E0,2.1963065E2,1.5235061E1,5.3534884E0,1.0706977E1,1.0819086E1,3.869766E0,1.0776665E2,1.22133224E2,4.922293E1,1.2837181E2,3.6071094E2,2.9206781E1,7.4268203E0,9.9479485E1,2.7769342E1,3.8696163E0,6.016386E1,1.5946678E2,5.3534884E0,5.3534884E0,1.0439123E2,3.3754191E0,1.1585077E1,1.1054815E2,1.23388565E2,4.983245E0],"tree_param":{"num_deleted":"0","num_feature":"1814","num_nodes":"59","size_leaf_vector":"1"}},{"base_weights":[-6.6343746E-3,3.3523005E-1,-8.4897876E-1,3.867328E-1,-6.6034514E-1,-7.984088E-1,-1.053931E0,5.057818E-1,1.07597016E-1,-9.5210963E-1,1.55283E-1,-6.129613E-1,-8.435755E-1,-2.5397971E-2,-3.4254774E-2,5.2737355E-1,-6.912424E-1,1.4973882E-1,-2.9673284E-1,-1.0624124E0,-4.614402E-3,1.0152788E-2,-5.855453E-3,-1.9581592E-2,2.1405902E-3,-9.1648304E-1,-7.546242E-1,4.6264693E-1,8.5502434E-1,-3.8691887E-3,-2.7292293E-2,-2.0207243E-2,1.7003568E-1,-1.40322875E-2,2.538259E-3,-3.777434E-2,-2.6134755E-2,-9.8638374E-1,-2.1798264E-2,-2.33033E-2,-7.639886E-3,6.169483E-5,1.5114782E-2,2.757601E-2,7.082729E-3,7.7669984E-3,-9.6060525E-5,-3.0336138E-2,-1.7673796E-2],"categories":[],"categories_nodes":[],"categories_segments":[],"categories_sizes":[],"default_left":[0,0,0,0,0,0,0,0,0,0,0,0,0,0,0,0,0,0,0,0,0,0,0,0,0,0,0,0,0,0,0,0,0,0,0,0,0,0,0,0,0,0,0,0,0,0,0,0,0],"id":29,"left_children":[1,3,5,7,9,11,13,15,17,19,21,23,25,-1,-1,27,29,31,33,35,-1,-1,-1,-1,-1,37,39,41,43,-1,-1,-1,45,-1,-1,-1,-1,47,-1,-1,-1,-1,-1,-1,-1,-1,-1,-1,-1],"loss_changes":[3.7476746E2,4.772225E1,3.0524292E0,2.9216309E1,1.1071568E1,2.041565E0,3.3137512E-1,1.6316818E1,4.553348E0,2.8259869E0,8.9750814E-1,1.7738438E0,8.842163E-1,0E0,0E0,1.2474152E1,1.2793751E0,4.130237E0,1.6902854E0,1.902008E-2,0E0,0E0,0E0,0E0,0E0,9.9372864E-1,1.0771027E0,9.651428E0,3.7123718E0,0E0,0E0,0E0,3.6235666E0,0E0,0E0,0E0,0E0,3.0548096E-1,0E0,0E0,0E0,0E0,0E0,0E0,0E0,0E0,0E0,0E0,0E0],"parents":[2147483647,0,0,1,1,2,2,3,3,4,4,5,5,6,6,7,7,8,8,9,9,10,10,11,11,12,12,15,15,16,16,17,17,18,18,19,19,25,25,26,26,27,27,28,28,32,32,37,37],"right_children":[2,4,6,8,10,12,14,16,18,20,22,24,26,-1,-1,28,30,32,34,36,-1,-1,-1,-1,-1,38,40,42,44,-1,-1,-1,46,-1,-1,-1,-1,48,-1,-1,-1,-1,-1,-1,-1,-1,-1,-1,-1],"split_conditions":[1E0,3.968254E-3,5.4945056E-3,2E0,1.8882112E-3,-2.8143756E-2,-1.5657706E-2,1.3605442E-2,1E0,7.2592095E-2,8.536568E-2,7.380074E-3,5.4945056E-3,-2.5397971E-2,-3.4254774E-2,1.1978548E-1,3.4722222E-3,-1.8359719E-5,6.8610637E-3,-2.0480188E-2,-4.614402E-3,1.0152788E-2,-5.855453E-3,-1.9581592E-2,2.1405902E-3,1E0,9.29368E-4,-1.5995126E-2,3.5714286E-3,-3.8691887E-3,-2.7292293E-2,-2.0207243E-2,6E0,-1.40322875E-2,2.538259E-3,-3.777434E-2,-2.6134755E-2,1E0,-2.1798264E-2,-2.33033E-2,-7.639886E-3,6.169483E-5,1.5114782E-2,2.757601E-2,7.082729E-3,7.7669984E-3,-9.6060525E-5,-3.0336138E-2,-1.7673796E-2],"split_indices":[490,273,372,507,923,1265,706,401,494,678,480,242,376,0,0,1478,323,708,388,1755,0,0,0,0,0,1796,141,699,223,0,0,0,507,0,0,0,0,1806,0,0,0,0,0,0,0,0,0,0,0],"split_type":[0,0,0,0,0,0,0,0,0,0,0,0,0,0,0,0,0,0,0,0,0,0,0,0,0,0,0,0,0,0,0,0,0,0,0,0,0,0,0,0,0,0,0,0,0,0,0,0,0],"sum_hessian":[1.2994342E3,9.24734E2,3.7470013E2,8.798305E2,4.490352E1,3.0447058E2,7.022956E1,6.1621014E2,2.6362033E2,3.294955E1,1.1953966E1,6.2485535E1,2.4198503E2,2.4074076E1,4.6155483E1,6.0584155E2,1.0368628E1,2.3930783E2,2.4312506E1,2.8658836E1,4.2907166E0,7.8737245E0,4.080241E0,5.909812E1,3.3874135E0,1.2787287E2,1.1411217E2,5.0791605E2,9.792549E1,3.3467286E0,7.0218983E0,4.983245E0,2.3432458E2,1.662884E1,7.6836667E0,1.1374685E1,1.7284151E1,9.039845E1,3.747442E1,1.0874039E2,5.3717837E0,4.1769707E1,4.6614633E2,8.828614E1,9.639353E0,1.5455125E2,7.977333E1,8.362786E1,6.7705884E0],"tree_param":{"num_deleted":"0","num_feature":"1814","num_nodes":"49","size_leaf_vector":"1"}},{"base_weights":[-1.4655723E-2,3.0731338E-1,-7.31671E-1,3.6249155E-1,-7.8993964E-1,-7.9999524E-1,2.0535719E-2,4.7828966E-1,1.0378586E-1,-2.7890062E-2,-1.7504027E-2,-9.86034E-1,-7.4280906E-1,5.077854E-1,-7.66124E-1,1.599156E-1,-5.320589E-1,-1.604459E-2,-3.0966721E-2,-6.212003E-1,-7.8453237E-1,-3.2565072E-2,5.267929E-1,-6.7334888E-3,-2.6755909E-2,1.1595111E-1,5.600488E-1,-1.4466754E-1,-4.465632E-2,5.667119E-3,-1.9746946E-2,-8.3188593E-1,-2.022355E-2,1.2791467E-2,2.2034328E-2,-2.657076E-3,5.1711784E-3,8.084859E-3,1.7904991E-2,-1.1956515E-3,-9.450776E-3,-1.54654505E-2,-2.5358077E-2],"categories":[],"categories_nodes":[],"categories_segments":[],"categories_sizes":[],"default_left":[0,0,0,0,0,0,0,0,0,0,0,0,0,0,0,0,0,0,0,0,0,0,0,0,0,0,0,0,0,0,0,0,0,0,0,0,0,0,0,0,0,0,0],"id":30,"left_children":[1,3,5,7,9,11,-1,13,15,-1,-1,17,19,21,23,25,27,-1,-1,29,31,-1,33,-1,-1,35,37,39,-1,-1,-1,41,-1,-1,-1,-1,-1,-1,-1,-1,-1,-1,-1],"loss_changes":[3.0903983E2,5.6220917E1,4.068683E1,2.632241E1,7.428093E-1,3.4826813E0,0E0,2.2699677E1,9.845282E0,0E0,0E0,1.3257523E0,1.0708466E0,1.8571823E1,7.855301E-1,4.3691974E0,8.08979E0,0E0,0E0,2.6218414E0,6.148224E-1,0E0,1.1949524E1,0E0,0E0,2.6504722E0,1.03060246E-1,2.920708E-1,0E0,0E0,0E0,2.1244812E-1,0E0,0E0,0E0,0E0,0E0,0E0,0E0,0E0,0E0,0E0,0E0],"parents":[2147483647,0,0,1,1,2,2,3,3,4,4,5,5,7,7,8,8,11,11,12,12,13,13,14,14,15,15,16,16,19,19,20,20,22,22,25,25,26,26,27,27,31,31],"right_children":[2,4,6,8,10,12,-1,14,16,-1,-1,18,20,22,24,26,28,-1,-1,30,32,-1,34,-1,-1,36,38,40,-1,-1,-1,42,-1,-1,-1,-1,-1,-1,-1,-1,-1,-1,-1],"split_conditions":[1E0,1E0,8.510638E-3,2E0,2.0206627E-2,-2.1097437E-2,2.0535719E-2,1.1583012E-2,1E0,-2.7890062E-2,-1.7504027E-2,-1.9629091E-2,2.1008404E-3,-8.5858956E-2,-3.585578E-2,2.8571428E-3,1E0,-1.604459E-2,-3.0966721E-2,-1.0045592E-2,1.0654827E-2,-3.2565072E-2,3.236246E-3,-6.7334888E-3,-2.6755909E-2,-6.237809E-2,3.539823E-3,2.1276595E-2,-4.465632E-2,5.667119E-3,-1.9746946E-2,-1.3642278E-1,-2.022355E-2,1.2791467E-2,2.2034328E-2,-2.657076E-3,5.1711784E-3,8.084859E-3,1.7904991E-2,-1.1956515E-3,-9.450776E-3,-1.54654505E-2,-2.5358077E-2],"split_indices":[489,491,107,507,963,1360,0,302,1796,0,0,683,152,1364,1357,110,498,0,0,1723,1109,0,378,0,0,1542,246,2,0,0,0,1062,0,0,0,0,0,0,0,0,0,0,0],"split_type":[0,0,0,0,0,0,0,0,0,0,0,0,0,0,0,0,0,0,0,0,0,0,0,0,0,0,0,0,0,0,0,0,0,0,0,0,0,0,0,0,0,0,0],"sum_hessian":[1.3366908E3,9.228602E2,4.138305E2,8.7931146E2,4.3548786E1,3.9519925E2,1.8631264E1,6.068384E2,2.7247302E2,2.3883251E1,1.9665535E1,8.909897E1,3.0610028E2,5.933661E2,1.3472319E1,2.5105908E2,2.1413954E1,9.442003E0,7.965697E1,8.2252335E1,2.2384795E2,6.333759E0,5.8703235E2,3.062857E0,1.0409462E1,2.27367E2,2.3692078E1,1.6060465E1,5.3534884E0,3.4162538E0,7.883608E1,1.520875E2,7.176045E1,3.9777206E2,1.8926025E2,4.9038662E1,1.7832834E2,3.5980387E0,2.0094038E1,1.0706977E1,5.3534884E0,7.7764964E0,1.4431099E2],"tree_param":{"num_deleted":"0","num_feature":"1814","num_nodes":"43","size_leaf_vector":"1"}},{"base_weights":[-2.414502E-3,3.0604953E-1,-7.3004943E-1,-4.937129E-1,3.6324367E-1,-8.003351E-1,1.995103E-2,-7.729964E-1,-7.308651E-2,4.8320097E-1,9.483776E-2,-7.3022974E-1,-9.443079E-1,-3.0621331E-2,-1.6980784E-2,-1.084217E-2,-1.3989888E-2,5.17048E-1,-2.931603E-1,1.3523538E-1,-5.281518E-1,-6.835873E-1,-8.4741014E-1,-6.514487E-1,-1.0015832E0,-3.0605379E-3,8.8907026E-2,5.3510386E-1,-2.0931E-2,1.1301776E-1,-2.740737E-2,1.8178065E-1,-1.361753E-2,-3.435664E-2,6.8986446E-2,-6.9576645E-1,-6.8817968E-3,-2.6017282E-2,-1.3749067E-2,-8.668928E-3,-2.097427E-2,-2.448072E-2,-3.155126E-2,3.9588013E-3,1.5014091E-3,1.4247053E-2,2.589606E-2,-3.7149559E-3,1.1983005E-2,6.7468593E-3,-1.003117E-2,-2.9961625E-3,4.88599E-3,-2.1842467E-2,-1.7486913E-2],"categories":[],"categories_nodes":[],"categories_segments":[],"categories_sizes":[],"default_left":[0,0,0,0,0,0,0,0,0,0,0,0,0,0,0,0,0,0,0,0,0,0,0,0,0,0,0,0,0,0,0,0,0,0,0,0,0,0,0,0,0,0,0,0,0,0,0,0,0,0,0,0,0,0,0],"id":31,"left_children":[1,3,5,7,9,11,-1,13,15,17,19,21,23,-1,-1,-1,25,27,29,31,33,35,37,39,41,-1,43,45,-1,47,-1,49,-1,-1,51,53,-1,-1,-1,-1,-1,-1,-1,-1,-1,-1,-1,-1,-1,-1,-1,-1,-1,-1,-1],"loss_changes":[2.9997873E2,4.3113174E1,3.9548157E1,7.3523493E0,2.817656E1,3.138504E0,0E0,1.3601208E0,4.425552E-1,1.6064072E1,6.9167085E0,8.389282E-1,1.3736115E0,0E0,0E0,0E0,2.1596771E-1,1.3108292E1,6.6390495E0,7.108766E0,6.257251E0,8.957062E-1,1.4044952E-1,1.8902397E-1,6.4186096E-2,0E0,1.1909418E-2,1.0901779E1,0E0,1.1731223E0,0E0,5.3755507E0,0E0,0E0,1.662981E-1,2.5148773E-1,0E0,0E0,0E0,0E0,0E0,0E0,0E0,0E0,0E0,0E0,0E0,0E0,0E0,0E0,0E0,0E0,0E0,0E0,0E0],"parents":[2147483647,0,0,1,1,2,2,3,3,4,4,5,5,7,7,8,8,9,9,10,10,11,11,12,12,16,16,17,17,18,18,19,19,20,20,21,21,22,22,23,23,24,24,26,26,27,27,29,29,31,31,34,34,35,35],"right_children":[2,4,6,8,10,12,-1,14,16,18,20,22,24,